Motif,Shift_z,Slide_z,Rise_z,Tilt_z,Roll_z,Twist_z,A_philicity_energy_z,DNA_bendability_z,X_Displacement_z,Y_Displacement_z,Inclination_z,Tip_z,Shear_z,Stretch_z,Stagger_z,Buckle_z,Propel_z,Opening_z,Alpha_z,Beta_z,Gamma_z,Delta_z,Epsilon_z,Zeta_z,Chi_z,Phase_z,Amplitude_z,Hydrogen_bond_z,Stacking_energy_z,Solvation_z,Average_Weight_Tetranuc
AAAA,-0.2327002656911492,-0.4559130910542043,0.3491260037247156,-0.5087972521050962,-0.4673034870396423,0.1691801813515121,2.546444720495161,-2.8042984208988773,1.4250469106724148,-0.7648912333579783,0.2635720349378679,2.592417223503713,1.6339438426825097,-1.5959855297967953,-1.6062778071984762,0.6116896675642226,-2.1178900757995605,0.908839167215338,-0.0687710417187133,0.5100907024224179,-0.5267970604075652,0.4843633124657673,0.0008199708809743,0.8323673447774529,-0.8540384350311416,0.1691672183236302,1.1073041465185034,1.942069151199065,0.9118696684167203,-0.0011497492648631,-0.050594999803558284
AAAG,0.2116771998309459,-0.1632507256834011,-0.4826327327294361,-1.1839993884155935,-0.8385135657852711,0.4893926635813396,1.7697128820079024,-1.745270229173827,1.4267316461205446,0.7366444574140706,-0.5999186906159377,1.0905899962683974,1.2806586875079131,-2.163447051502322,0.3038903959564685,0.8548472966839545,-2.2732159072724416,1.213144946953589,-0.2176340582200079,-0.0271794549175733,0.0018135605550608,0.5810107683492145,-0.2312983716174927,0.5208513763763413,-0.4513125061841325,0.3740751080439273,0.7843398760901807,1.8320935493293624,1.293224942897907,-0.5254354140453357,-0.0005430036548112596
GAAA,-0.0105115329301016,-0.3973806179800436,-0.0289461492089906,-0.3769593646199636,-0.2061454669555893,-0.3083621331877668,1.7697128820079024,-1.5038337502313286,1.0512259171911735,1.0738447748897564,0.5335037487830264,1.4305073521512923,1.5161821242909774,-1.0285240080912683,-1.8667552894468775,0.8168763762746171,-1.8148827207901608,1.1407759311094048,-0.2780928310437788,0.0594046089208643,-0.7184238993918542,0.8687998217336104,-0.0449469064407538,0.9172522870292088,-0.3875234322453507,0.9084693797623874,-0.0073815554050058,0.8223175685257307,0.838058970130036,0.0724342036867892,0.0
GAAG,0.014176104043348,-0.1047182526092406,-0.4826327327294361,-1.1791955787501436,-0.4107249992010892,-0.1240085885051622,0.9929810435206432,-0.4448055585062788,1.0529106526393033,2.575380465661806,-0.3299869767707796,-0.0713198750840237,1.1628969691163809,-1.5959855297967953,0.0434129137080669,1.060034005394349,-1.9702085522630413,1.445081710847656,-0.4269558475450734,-0.477865548419127,-0.1898132784292282,0.9654472776170576,-0.2770652489392209,0.6057363186280974,0.0152024966016584,1.1133772694826896,-0.3303458258333286,0.7123419666560278,1.2194142446112226,-0.4518514610936937,-1.6221803698628965
CAAA,-0.8745788270008422,0.5391389512065263,-0.5582471633161753,-0.8952370518590884,-0.7129369220460435,0.1591851096518524,2.2169221223490507,-1.2184997296629214,2.1527667357906224,-0.9413661836101076,0.8740654760651847,2.703157802873082,1.0451352507248486,-1.5959855297967953,-1.7799294620307438,1.0373951916487192,-0.9849060527209368,1.5328736317078149,-1.2242015352167517,0.1802292160865354,-0.8236078313399857,1.0434699633562934,1.8257416251573808,1.954415203533126,-2.6369429105767663,0.1548850643087751,2.1704495091719536,1.192235502087457,0.5428161769833093,-0.3414755316662203,0.18371042785897748
CAAG,-1.3436439294963871,0.978132499262731,-0.4826327327294361,-1.746578875902759,-0.4390142431203658,0.7940572565005855,1.4401902838617922,-0.1594715379378717,2.1544514712387515,0.5601695071619414,0.0105747505113797,1.2013305756377657,0.6918500955502519,-2.163447051502322,0.1302387411242009,1.280552820768451,-1.1402318841938175,1.837179411446066,-1.3730645517180384,-0.3570409412534558,-0.2949972103773596,1.1401174192397403,1.5936232826589138,1.6428992351320144,-2.234216981729757,0.3597929540290722,1.8474852387436245,1.0822599002177544,0.924171451464496,-0.8657611964467032,-10.019595060966662
TAAA,-0.6770777312132443,0.5684051877436067,0.0466682813777519,-1.1445013978330032,0.0318981709017375,0.121425949897585,1.4872649407398089,-0.9276785163912756,1.389815269943023,0.1702055424459977,-0.392452516109671,2.335485561962708,1.2806586875079131,-0.4610624863857414,-1.6931036346146102,0.4989747271693122,-1.004911369235245,2.207329131829436,-0.5099885128192828,0.4875366472932534,-0.8316863446318716,0.5007508729830363,1.006192641294971,1.9235829101994253,-1.0915308639193957,-0.1055282689331464,1.9171267512330288,1.862086895293827,1.0225857158467415,-0.0931296904544208,0.0
TAAG,-0.4795766354256466,-0.0169195429979996,-0.7094760244896572,-1.415116008986697,-0.9720249974530762,-0.7240830783254486,0.7105331022525504,0.1313496753337751,1.3915000053911526,1.671741233218046,-1.2559432416634766,0.8336583347273919,0.9273735323333164,-1.0285240080912683,0.2170645685403348,0.7421323562890444,-1.160237200708126,2.5116349115676875,-0.6588515293205774,-0.0497335100467378,-0.3030757236692429,0.5973983288664835,0.774074298796504,1.6120669417983138,-0.6888049350723865,0.0993796207871556,1.594162480804706,1.752111293424124,1.4039409903279283,-0.6174153552348933,1.5860117749939402
AAAC,-0.528951909372546,-0.426646854517124,0.1222827119644912,-1.2165585428147558,-0.7533008432479381,0.9935885026530444,1.0635930288376674,-2.425682124375413,0.6415524320125958,-0.6459690299932264,0.0662364616196142,1.5897133262186174,1.8694672794655744,-1.0285240080912683,0.1302387411242009,0.9354606387517278,-2.104715842973065,0.4408133188459807,-0.0982338176819273,-0.9692183086016712,-0.8257658546351461,1.1283161384576663,-0.7134534667275733,0.529221284857926,0.2091286478685282,1.3884961930536797,-0.6632247621621254,1.5821489996254934,0.0999519872632243,0.0448402213299156,0.016045764456654298
AAAT,-0.356138450558398,-0.5144455641283648,0.4247404343114548,-0.926728692999262,-0.7150068667230637,1.1897880582389475,1.9580115095199648,-2.8372215771183087,0.2469687022388413,-1.0091244401757686,-1.7921645191345743,1.1389863445216604,1.751705561074042,-0.4610624863857414,-0.2170645685403345,0.3280456942856385,-1.8412311864431523,0.5321643716329021,-0.1699291367360288,-0.5188597836069058,-0.4401833880497895,0.6130308311346698,-0.8156600780129653,-0.0120198306874593,0.3008237541725246,0.9971528228206896,-0.7977822803418865,2.012053625116149,0.5797215261266462,-0.0195457375027684,0.0
GAAC,0.0388637410167978,-0.426646854517124,-0.2557894409692117,-0.9592878473984242,-0.6473886739404028,0.2217468547349067,0.2868611903504089,-1.1252174537078652,0.2677314385313545,1.1927669782545085,0.336168175464772,0.427803454866196,1.751705561074042,-0.4610624863857414,-0.1302387411242006,1.1406473474621224,-1.8017084879636656,0.6727500827400476,-0.3075556070069928,-1.4199044021032192,-1.017392693619435,1.5127526477255175,-0.7592203440493015,0.6141062271096821,0.6756436506543192,2.127798354492432,-1.777910464085635,0.4623974169521577,0.02614128897654,0.118424174281568,-42.292067594636215
GAAT,-0.4055137245052973,-0.3973806179800436,0.3491260037247156,-1.1151447832108077,-0.8405835104622914,0.9998816959454212,1.1812796710327065,-1.5367569064507602,-0.1268522912424004,0.829611568071966,-1.5222328052894163,-0.0229235268307607,1.6339438426825097,0.1063990353197856,-0.4775420507887361,0.5332324029960333,-1.538223831433753,0.7641011355269689,-0.3792509260610943,-0.969545877108454,-0.6318102270340786,0.9974673404025128,-0.8614269553346935,0.0728651115642999,0.7673387569583157,1.7364549842594417,-1.912467982265396,0.8923020424428132,0.5059108278399724,0.0540382154488735,-1.3982852673972341
CAAC,-1.5164573883105352,1.0366649723368917,-0.1801750103824724,-1.7364374999423642,-0.8243689438256329,1.3126904213606851,0.7340704306915572,-0.839883433139458,1.369272257130803,-0.8224439802453556,0.6767299027469311,1.7004539055879857,1.2806586875079131,-1.0285240080912683,-0.0434129137080686,1.3611661628362244,-0.9717318198944412,1.0648477833384569,-1.2536643111799657,-1.299079794937548,-1.122576625567569,1.6874227893481926,1.1114681875488333,1.651269143613599,-1.5737758276770963,1.3742140390388196,0.3999206004913181,0.8323153505138854,-0.2691015041701974,-0.2954855610714414,-0.5784526095666204
CAAT,-1.269581018576038,0.4806064781323657,-0.0289461492089906,-1.8559989849491243,-0.5680407946546271,1.0372706678589612,1.6284889113738552,-1.251422885882353,0.9746885273570484,-1.185599390427898,-1.1816710780072577,1.249726923891029,1.1628969691163809,-0.4610624863857414,-0.3907162233726022,0.7537512183701348,-0.7082471633645291,1.1561988361253783,-1.3253596302340669,-0.8487212699427827,-0.73699415898221,1.1721374820251955,1.0092615762634412,1.1100280280682169,-1.4820807213731,0.9828706688058294,0.2653630823115571,1.262219976004541,0.2106680346932455,-0.359871519904136,-6.056023495518398
TAAC,-2.207711223567128,1.3878598107818554,-0.6338615939029145,-1.881085546535364,-0.6660181760335848,0.935469011658728,0.0044132490823146,-0.5490622198678111,0.6063207912832038,0.2891277458107492,-0.5897880894279247,1.3327816646776118,1.5161821242909774,0.1063990353197856,0.0434129137080669,0.8227456983568174,-0.9917371364087496,1.7393032834600788,-0.5394512887824968,-0.99177236373083,-1.1306551388594526,1.1447036989749435,0.2919192036864235,1.6204368502798985,-0.0283637810197257,1.113800705796903,0.1465978425523999,1.502166743720255,0.2106680346932455,-0.047139719859642,11.581039069603888
TAAT,-1.98552249080608,0.89033378965149,0.0466682813777519,-1.8543977150606408,-0.3786408567072756,1.2764120129693293,0.8988317297646127,-0.9606016726107072,0.2117370615094489,-0.0740276643717931,-2.4481890701821136,0.8820546829806548,1.3984204058994456,0.6738605570253122,-0.3038903959564684,0.2153307538907282,-0.7282524798788368,1.830654336247,-0.6111466078365984,-0.5414138387360702,-0.745072672274096,0.6294183916519388,0.1897125924010315,1.0791957347345131,0.0633313252842706,0.7224573355639128,0.0120403243726388,1.9320713692109104,0.6904375735566673,-0.1115256786923261,0.0
AAGA,0.6560546653530411,-0.7193092198879272,0.7271981566584185,-0.1068785100957645,0.6014779478618056,-0.4779081642412468,0.9929810435206432,-0.0936252254990085,1.1517909379184674,1.0273182429251546,-2.6728098672453173,1.0399818621638444,0.4563266587671875,-0.4610624863857414,1.3458003249500747,1.5607231136310389,-1.0008452479924996,0.3642919824205721,-1.1888897072143727,-0.7578788155160919,0.006501162460549,1.0564877268730002,0.6471337657694698,0.8004670017756027,-0.95776292763868,0.6472885682009591,1.1407292624994634,0.7523330946086471,1.5146570377579496,0.0080482448540946,-2.738624989175155
AAGG,0.0635513779902475,-1.5094976063890952,0.7271981566584185,-0.7014833953525978,-0.0191604644647614,-0.1924933390398633,-0.0191240793566937,-0.554549412571051,0.4771082836002727,1.976829923903069,-0.6459519926110681,0.0283959931339156,0.2208032219841228,-1.0285240080912683,2.82183939102435,1.5475470844669157,-0.8443809025716504,0.0208357514879259,-2.3638833566256747,-3.075859547596852,4.057810837641755,0.9122156710562568,0.0532199178373131,-0.9299090506922156,0.2960270711410994,0.8614503057048177,0.1699350084390637,0.8723064784665047,1.8345033970002376,-0.2402975963577152,1.7559889790028034
GAGA,0.8041804871937396,-0.426646854517124,-0.1801750103824724,-0.303834706379222,0.5076404558368882,-1.1238859463118227,0.2162492050333853,0.5209403572637135,0.3329183362090612,-0.0798100746131039,-1.1660752551790998,0.5172868249780173,0.5740883771587195,0.6738605570253122,0.3038903959564685,0.99283625665732,-0.1619231131892349,0.2581112132721378,-1.0987639058164846,-0.4693198641390878,-0.6200855926443716,1.2277461238146106,0.7000289124234826,0.971001525375563,-0.5302343232293646,0.9585230807384948,0.6832215239611533,0.0024994454970389,1.3670356411845914,0.431155974326062,0.0
GAGG,0.014176104043348,-0.6315105102766863,-0.4826327327294361,-0.9352687990711732,0.3844787475541843,-0.8999223026713078,-0.7958559178439515,0.0600161701916722,-0.3417643181091339,0.869701606364811,0.8607826194551499,-0.4942990440519113,0.3385649403756551,0.1063990353197856,1.7799294620307438,0.9796602274931966,-0.0054587677683856,-0.0853450176605086,-2.273757555227794,-2.7873005962198474,3.4312240825368368,1.0834740679978594,0.106115064491326,-0.7593745270922587,0.7235556755504148,1.1726848182423533,-0.287572730099253,0.1224728293548955,1.686882000426869,0.1828101331142626,0.0
CAGA,-0.0845744438504508,-0.1632507256834011,-0.4070183021426935,-0.8845619192691991,0.5228200501350366,-1.0180122238635805,0.6634584453745344,1.3110961065300717,-0.0682621946521771,1.109598365824021,-1.2070812863108125,2.2504279475511595,0.2208032219841228,0.6738605570253122,0.4775420507887363,1.214792457031144,0.9429233508895892,0.2355700444026375,-1.9932656678480696,-0.423450638820873,-0.8021664624960663,1.264016884891234,1.506533293723521,1.867304139028202,-1.1111016369531808,0.688458928168435,1.305939349559058,-0.0374916824555802,0.1983662516454595,-1.7579666259854168,5.6542682675922675
CAGG,-0.1586373547708,-0.5144455641283648,-0.9363193162498782,-1.20748468011335,-0.6518735540739466,-1.384498186184422,-0.3486466775028032,0.8501719194580305,-0.7429448489703723,2.059110046801936,0.8197765883234366,1.238842078521231,-0.0147202147989415,0.1063990353197856,1.953581116863012,1.2016164278670207,1.0993876963104383,-0.1078861865300085,-3.168259317259372,-2.741431370901627,3.2491432126851394,1.119744829074491,0.9126194457913644,0.1369280865603803,0.1426883618265986,0.9026206656722986,0.3351450954986518,0.0824817014022763,0.5182126108877478,-2.0063124671972163,1.085638475054808
TAGA,0.0635513779902475,-0.1925169622204814,-0.3314038715559543,-0.5696455078674653,0.1447101557993405,-0.8088560938521913,-0.0661987362347089,0.8446847267547908,0.4221883619476391,0.2536287827076474,-2.638287296304107,1.6627388926607232,0.6918500955502519,1.8087836004363664,0.651193705621004,1.379133475332756,0.3232464734951658,0.4835229019671387,-1.2484333222361024,-1.053740617720914,-0.7031282055841522,1.4343244677414069,1.1941404739181534,1.4633212982649415,-1.1257246090746045,1.2845425779140194,0.5010764194730687,0.2624417771890627,0.5920233091744321,-0.2954855610714414,0.00658245771593458
TAGG,-0.356138450558398,0.041612930076161,-1.08754817742336,-1.1001995975849626,-0.2806634753283178,-0.678179786075163,-1.0783038591120455,0.3837605396827485,-0.2524942923705559,1.2031404636855625,-0.6114294216698574,0.6511530236307944,0.4563266587671875,1.2413220787308397,2.1272327716952795,1.3659574461686328,0.4797108189160149,0.1400666710344923,-2.4234269716474044,-3.3717213498016685,3.348181469597053,1.2900524119246557,0.6002266259859967,-0.2670547542028799,0.1280653897051749,1.498704315417878,-0.4697178345873376,0.3824151610469204,0.9118696684167203,-0.5438314022832513,15.969067681761498
AAGC,-0.4055137245052973,-1.3339001871666136,1.0296558790053822,-1.0206698597902877,-0.0460697452660246,0.420907913046636,0.6163837884965184,-0.1484971525313945,-0.6647366923629812,1.2100284304089033,-1.3731891605903657,0.8924961061601433,-0.1324819331904738,-2.730908573207849,2.300884426527547,0.0393708735080255,-1.522284636162191,-0.1446638831065615,-0.7070631033848064,-0.798834513232488,-0.2546402982158584,1.1632865214386443,-0.0981939055115309,0.521368174602863,-0.664301674404842,0.8239409055373151,1.1387201025224671,0.6323597107507893,0.3090822990754808,0.6978978037757773,-39.02167638974935
AAGT,-0.3067631766114984,-2.036289864056541,1.5589568931125668,-0.3582778825876572,-0.1271425784493171,0.8569891894243644,0.2868611903504089,-1.2459356931791143,0.7557606952327777,0.296393636140102,-1.8426002066246696,0.7055982553987656,-0.6035288067566028,-2.163447051502322,2.040406944279145,-0.1223349389607618,-1.8335868785067904,0.2415019309472427,-0.8341904589297113,0.6775263812305066,-0.0799248556976464,0.163295765880765,-1.134275472966718,-0.4849791194778853,0.5477854309707518,0.3989078835546362,-0.0391628132229651,0.8923020424428132,0.0138395059287539,0.155216150757389,-0.03629548249281246
GAGC,-0.0598868068770011,-1.275367714092453,0.273511573137973,-0.960355360657413,-0.2482343420550008,-1.0761317148578955,-0.1603480499907401,0.4660684302313285,-1.4836092940723882,0.1029001128706447,0.1335454514758518,0.3698010689743162,-0.0147202147989415,-1.5959855297967953,1.2589744975339408,-0.5285159834656934,-0.6833625013589258,-0.2508446522549964,-0.6169373019869259,-0.5102755618554838,-0.8812270533207791,1.334544918380255,-0.0452987588575217,0.6919026982028232,-0.2367730699955265,1.1351754180748557,0.681212363984157,-0.1174739383608186,0.1614609025021227,1.1210055332477449,-0.5864740222390447
GAGT,-0.1339497177973503,-1.4802313698520153,1.0296558790053822,-1.0057246741644428,0.0170635673830926,0.2173046006461691,-0.4898706481368503,-0.6313701104163912,-0.0631119064766289,-0.8107346813981561,-0.335865594558452,0.1829032182129386,-0.4857670883650706,-1.0285240080912683,0.9984970152855396,-0.6902217959344809,-0.9946647437035264,0.1353211617988081,-0.7440646575318309,0.9660853326075108,-0.7065116108025644,0.3345541628223675,-1.0813803263127089,-0.314444595877925,0.9753140353800672,0.7101423960921719,-0.4966705517612753,0.1424683933312051,-0.1337818906446041,0.5783238802293564,-0.809466042389845
CAGC,-0.7017653681866941,-0.2217831987575618,-0.7094760244896572,-1.2405775911420072,-0.0967833898530203,-0.7651739286462719,0.2868611903504089,1.256224179497687,-1.8847898249336263,1.2923085533077694,0.0925394203441391,2.102942191547459,-0.3680053699735383,-1.5959855297967953,1.4326261523662087,-0.306559783091869,0.4214839627198984,-0.2733858211244961,-1.5114390640185036,-0.4644063365372636,-1.0633079231724738,1.370815679456878,0.7612056224425167,1.588205311855459,-0.8176403837193416,0.865111265504801,1.303930189582062,-0.1574650663134378,-1.0072084870369986,-1.0681170670637343,0.0
CAGT,-1.3189562925229377,-0.1047182526092406,0.1978971425512337,-1.5704391881695858,-0.5107723252570673,0.902152105993198,-0.0426614077957013,0.158785638849967,-0.4642924373378669,0.3786737590389682,-0.3768716256901647,1.9160443407860808,-0.8390522435396673,-1.0285240080912683,1.1721486701178072,-0.4682655955606564,0.1101817203752978,0.1127799929293078,-1.638566419563401,1.011954557925731,-0.8885924806542618,0.3708249238989988,-0.2748759450126705,0.581858017774714,0.394446721656251,0.440078243522117,0.1260472738366294,0.1024772653785859,-1.3024512801837254,-1.610798720082112,57.95548990032579
TAGC,-1.467082114363636,-0.2803156718317224,0.273511573137973,-1.9750267133263897,0.485216055169169,0.4327539239499373,-0.4427959912588335,0.7898127997224058,-1.3943392683338105,0.4363389701913966,-1.338666589649155,1.515253136657022,0.1030415035925908,-0.4610624863857414,1.6062778071984745,-0.1422187647902571,-0.1981929146745251,-0.0254329635599951,-0.766606718406536,-1.0946963154373048,-0.9642696662605598,1.5411232623070428,0.4488128026371489,1.184222471092199,-0.8322633558407665,1.4611949152503805,0.4990672594960724,0.1424683933312051,-0.6135514295080365,0.394363997850241,6.038156240545721
TAGT,-1.713958484098133,-0.1047182526092406,0.5003548648981975,-1.9889043856932456,0.4069031482219035,0.5130846853879396,-0.772318589404943,-0.3076257409253139,0.0261581192619494,-0.4772958240774042,-1.808077635683459,1.3283552858956444,-0.3680053699735383,0.1063990353197856,1.3458003249500747,-0.3039245772590445,-0.5094951570191257,0.3607328504938094,-0.8937340739514411,0.3816645790256898,-0.7895542237423478,0.5411325067491556,-0.5872687648180381,0.1778751770114505,0.3798237495348273,1.0361618932676964,-0.6788156562493666,0.40241072502323,-0.9087942226547632,-0.1483176551681575,-0.07050421246199584
AGAA,-0.1339497177973503,0.2757428223728035,1.0296558790053822,0.751402150131334,-0.3600113546140935,1.1290772523595376,0.9929810435206446,0.1478112534434909,0.7762852089890965,1.36451856040084,-1.5393874278463535,1.379899218046739,0.6918500955502519,0.6738605570253122,-0.8248453604532715,1.5227521932217014,-0.5425120615102196,0.2919229665763876,-1.2493484800381436,-0.6712947516776543,-0.713736297486366,1.344276780257412,0.8334852309462049,1.1968679124284736,-0.8939738536998981,1.1816828399194144,0.3490078310042768,-0.2574428861949859,1.0594910649900786,0.6059178625862195,-0.013470941943697301
AGAG,-0.5042642723990963,0.8318013165773294,0.5003548648981975,-0.2291087782499969,-0.4117599715395993,1.1949706880091426,0.2162492050333853,0.5209403572637135,0.3329183362090612,-0.0798100746131039,-1.1660752551790998,0.5172868249780173,0.5740883771587195,0.6738605570253122,0.3038903959564685,0.99283625665732,-0.1619231131892349,0.2581112132721378,-1.0987639058164846,-0.4693198641390878,-0.6200855926443716,1.2277461238146106,0.7000289124234826,0.971001525375563,-0.5302343232293646,0.9585230807384948,0.6832215239611533,0.0024994454970389,1.3670356411845914,0.431155974326062,0.8599607554631019
GGAA,-0.1092620808239005,0.509872714669446,0.273511573137973,0.3275993863127293,-0.00570582406413,0.6859624070079728,-0.0191240793566929,0.0709905555981494,0.2217760083556601,2.595331800983555,0.5738727569734787,0.5089202060298461,0.4563266587671875,0.1063990353197856,-2.1272327716952795,1.1564585824590707,-0.3370916163267141,0.2017582910983874,-1.2043492424906512,-1.0655716214366804,-0.7542752342214608,1.389048937916379,0.5994642790829998,0.7685544334393641,-0.5192700157506616,1.5106487481146789,-0.4211654768215213,-0.957287625365821,0.9610768006078328,0.9370456508686292,0.5717186346983436
GGAG,0.1376142889105967,0.4220740050582051,-0.1801750103824724,-0.2755456050160152,-0.3751909489122418,0.5441804640091005,-0.7958559178439515,0.4441196594183741,-0.2215908644243751,1.1510031659696105,0.9471849296407328,-0.3536921870388758,0.3385649403756551,0.1063990353197856,-0.9984970152855392,0.626542645894689,0.0434973319942706,0.1679465377941373,-1.0537646682689925,-0.863596733898114,-0.6606245293794664,1.2725182814735778,0.4660079605602738,0.5426880463864567,-0.1555304852801292,1.2874889889337644,-0.0869517838646515,-0.6973452936737962,1.2686213768023455,0.7622837626084717,0.00145182657320738
CGAA,-0.998017011868091,1.1537299184852128,0.4247404343114548,-0.3433326969618122,0.0853717417247603,0.6200689713583678,1.2989663132277458,-0.0168045276536681,1.5864426789444754,1.8915975157768787,0.3231491912846198,0.540202337259893,-0.0147202147989415,0.1063990353197856,-1.6062778071984762,1.1104622624679488,-0.0519751947853951,0.4740318834957703,-1.5385993560044071,-0.4693198641390878,-1.1498277684304594,1.5699553013741183,1.5016138756742727,2.0992131754522925,-1.8653257419528528,1.2272022436974743,0.5130798624125633,-0.5173852178870096,0.02614128897654,-0.2494955904766626,0.00215047594311348
CGAG,-1.269581018576038,1.5634572300043372,-0.1045605797957298,-1.000387107869498,-0.2934281341699426,0.9891462485643068,0.5222344747404872,0.3563245761665566,1.1430758061644395,0.4472688807629342,0.6964613639518739,-0.3224100558088289,-0.1324819331904738,0.1063990353197856,-0.4775420507887361,0.5805463259035673,0.3286137535355895,0.4402201301915199,-1.3880147817827484,-0.2673449766005213,-1.0561770635884649,1.4534246449313248,1.3681575571515467,1.873346788399385,-1.5015862114823215,1.00404248451655,0.8472935553694398,-0.2574428861949859,0.3336858651710422,-0.4242574787368305,-0.423111842857017
TGAA,-1.2448933816025882,1.007398735799811,-0.0289461492089906,-0.5450927029107199,0.0998613544639019,-0.0292405012787625,1.4401902838617922,1.064172434884336,1.238588885737863,0.7515490953274326,0.5701814974958616,1.001463696932241,0.4563266587671875,0.6738605570253122,-1.4326261523662085,0.9978671041563486,0.2531465432702321,0.5357235035596654,-1.2585610685787332,-0.2574601151897906,-0.9335093898655394,1.3782404189062611,2.007049872360455,2.364624073683433,-2.4726185357897235,0.8532374055270381,1.2335299733251253,-0.2874362321594503,0.432100129553288,-0.0379417257406841,-0.0272462936546367
TGAG,-1.1955181076556889,1.3585935742447752,0.0466682813777519,-0.8957708084885828,-0.3241323135457428,0.8962291005415461,0.6634584453745344,1.4373015387045605,0.7952220129578278,-0.6927795396865113,0.9434936701631156,0.138851303863519,0.3385649403756551,0.6738605570253122,-0.3038903959564684,0.467951167591967,0.6337354915912168,0.501911750255415,-1.1079764943570745,-0.0554852276512296,-0.839858685023545,1.2617097624634677,1.873593553837725,2.1387576866305227,-2.10887900531919,0.6300776463461135,1.567743666281995,-0.0274939004674254,0.7396447057477903,-0.2127036140008416,-1.3663851217029568
AGAC,-0.528951909372546,0.3928077685211247,0.6515837260716792,-0.055637873664296,-0.62254933781616,1.6495613564232787,-0.4898706481368503,0.2795038783212161,0.870760076241544,0.6132689312059714,-2.064175510995085,1.4065231648338592,0.9273735323333164,0.6738605570253122,0.56436787820487,0.8508944879347176,-0.5498310797471619,-0.6832791813567218,-0.8044915987798834,-0.8529122199561039,-0.8282747912835217,1.4242989721007169,0.0170638241217265,0.597006318479,-0.4057683977370545,1.4757593601413828,-0.1128507458059031,-0.1574650663134378,0.432100129553288,1.1853914920804287,2.624708995387671
AGAT,-0.5042642723990963,-0.1047182526092406,1.4833424625258276,0.0612548281949916,-0.516982159288128,1.9190581044733528,0.4045478325454485,-0.2527538138929279,0.483735475993879,0.5449360368402045,-2.2543133040073817,1.8389984521212093,0.6918500955502519,1.2413220787308397,0.0434129137080669,0.4460310463461981,-0.6363581397927874,-0.4335467578288393,-0.8309860803069006,-0.5719451504423125,-0.630978918929943,1.108712589101688,-0.1573702693833938,0.03663033182388,-0.2410974592763979,1.447477342987805,-0.6689244071318353,0.1824595212838243,0.5674197430788708,1.1485995156046078,0.08018377786591162
GGAC,-1.2942686555494878,0.7147363704290082,-0.3314038715559543,-1.6110046920111654,-0.3548364929215429,1.169057539158174,-1.5019757710141868,0.2026831804758757,0.3162508756081075,1.844082171788686,0.0490846738247474,0.5355441528169661,0.6918500955502519,0.1063990353197856,-0.7380195330371376,0.4846008771720868,-0.3444106345636558,-0.7734438568347224,-0.7594923612323835,-1.24718908971513,-0.8688137280186138,1.469071129759684,-0.2169571277414785,0.1686928394898937,-0.0310645597878191,1.8047252683366524,-0.8830240536317013,-0.8573098054842719,0.3336858651710422,1.5165192803628489,0.18642894268412702
GGAT,-0.7017653681866941,0.3342752954469641,0.8784270178319004,-0.503993442439646,-0.5062874451235234,1.6862099526553618,-0.6075572903318891,-0.3295745117382683,-0.0707737246395573,1.7757492774229198,-0.1410531191875496,0.9680194401043158,0.4563266587671875,0.6738605570253122,-1.2589744975339408,0.0797374355835672,-0.4309376946092814,-0.5237114333068398,-0.7859868427594007,-0.9662220202013386,-0.6715178556650377,1.153484746760655,-0.391391221246599,-0.3916831471652294,0.1336063786728374,1.7764432511830746,-1.43909771495764,-0.5173852178870096,0.4690054786966249,1.4797273038870171,6.811798761166773
CGAC,-1.713958484098133,1.651255939615578,0.273511573137973,-1.20748468011335,-0.305847802232064,1.3056568523868513,-0.1838853784297476,0.1148880972240582,1.6809175461969228,1.14034788658201,-0.2016388918641115,0.566826284047013,0.2208032219841228,0.1063990353197856,-0.2170645685403345,0.4386045571809649,-0.0592942130223368,-0.5011702644373395,-1.0937424747461322,-0.6509373324175374,-1.2643662622276148,1.649977493217431,0.6851924688497945,1.4993515815028222,-1.3771202859900105,1.521278763919438,0.0512212856023834,-0.4174073980054616,-0.6012496464602505,0.3299780390175465,0.0
CGAT,-1.0967675597618898,0.7440026069660886,0.8028125872451611,-0.6144810647450002,-0.6435937753658657,1.6417874117679878,0.7105331022525504,-0.4173695949900859,1.293892945949258,1.0720149922162436,-0.3917766848764079,0.9993015713343628,-0.0147202147989415,0.6738605570253122,-0.7380195330371376,0.0337411155924456,-0.1458212730679624,-0.2514378409094566,-1.120236956273157,-0.3699702629037459,-1.0670703898740364,1.334391110218402,0.510758375344674,0.938975594847699,-1.2124493475293538,1.4929967467658651,-0.5048523757235488,-0.0774828104081994,-0.4659300329346678,0.2931860625417151,-0.388816939713018
TGAC,-1.98552249080608,1.4171260473189355,-0.0289461492089906,-1.7471126325322537,-0.2271899045052951,0.9835934309533848,-0.0426614077957013,1.195865059762062,1.3330637529903104,0.0002994661325644,0.0453934143471302,1.028087643719361,0.6918500955502519,0.6738605570253122,-0.0434129137080667,0.326009398869365,0.2458275250332898,-0.4394786443734444,-0.813704187320458,-0.4390775834682457,-1.0480478836626952,1.4582626107495738,1.1906284655359765,1.764762479733963,-1.9844130798268789,1.1473139257490066,0.7716713965149385,-0.1874584122779022,-0.1952908058835024,0.541531903753525,4.400880965918031
TGAT,-1.269581018576038,1.065931208873972,0.3491260037247156,-1.101800867473446,-0.4221096949247006,1.509630352628048,0.851757072886596,0.6636073675479182,0.9460391527426456,-0.0680334282332023,-0.1447443786651664,1.460562931006711,0.4563266587671875,1.2413220787308397,-0.5643678782048699,-0.0788540427191545,0.1593004649876647,-0.1897462208455618,-0.8401986688474826,-0.1581105139544488,-0.8507520113091164,1.142676227750537,1.0161943720308524,1.2043864930788395,-1.8197421413662225,1.1190319085954286,0.2155977351890063,0.1524661753193599,-0.0599711923579197,0.504739927277704,0.00285952514788266
AGGA,0.4585535695654432,-0.9241728756474892,1.7858001848727914,1.7335143484011482,0.5135052990884457,0.4701428958634774,-0.7958559178439515,-0.0387532984666225,-0.35402636068337,1.9967812592248184,0.2579077411331903,0.6086360742477855,-0.4857670883650706,0.6738605570253122,0.651193705621004,1.6439716615316369,0.7887360333646776,-1.2224876682613428,-3.14127675157126,-3.663565620614405,3.4933488818495224,1.3358173313555706,0.9297494458595302,-0.767090935880949,-0.2384454412112205,1.258721784336812,0.0791153574508643,-0.7973231135553431,1.576165952996848,1.1485995156046185,0.0348360867040584
AGGG,0.6066793914061417,-0.2217831987575618,0.5759692954849367,0.8859088207639391,0.3213454349050672,-0.069590975918126,-1.807961040721289,-0.1759331160475876,-0.9810526155123585,1.2360457169462191,-0.0911020163065473,0.2436685346208347,-0.721290525148135,0.6738605570253122,1.7799294620307438,1.7675867715077769,1.0720633615591886,-1.5262002593451336,-2.5206910039012373,-3.932981083079986,3.172021089742079,1.3838054778532551,0.2838917559557372,-1.066965051759873,0.2793085977373587,1.5541832941698606,-0.4023852168966746,-0.9472898433776652,1.9575212274780345,1.9764189863106367,0.402453848623982
GGGA,1.149807404822036,-0.3681143814429633,0.8784270178319004,1.2830237531078206,0.877815562244007,-0.4912349265074597,-1.807961040721289,0.2081703731791133,-0.8608791618275996,1.5173472765510188,-0.0046997061209646,0.3842753916338702,-0.721290525148135,0.6738605570253122,-0.9984970152855392,1.4144691899092692,1.121019461321845,-1.2729087038904878,-1.3006981169424356,-2.0092772207582525,-0.9198275221742188,1.5728496913289656,0.6437846520246849,0.2350975217188391,-0.5997775630931853,1.6689874648612617,-0.2017642706620731,-1.7671079664063567,1.539260603853511,2.5558926158048463,11.6302844234739
GGGG,0.0388637410167978,-0.8071079294991679,0.9540414484186428,0.354820974416947,0.5911282244767043,0.0981041159317123,-2.820066163598626,0.0709905555981494,-1.487905416656588,0.7566117342724198,-0.3537094635607023,0.0193078520069195,-0.9568139619311996,0.6738605570253122,0.1302387411242009,1.5380842998854087,1.404346789516356,-1.5766212949742788,-0.6801123692724205,-2.278692683223833,-1.241155314281662,1.62083783782665,-0.0020730378791117,-0.0647765941600817,-0.0820235241446048,1.96444897469431,-0.6832648450096122,-1.9170746962286775,1.9206158783346976,3.3837120865108656,0.094243375076446
CGGA,0.3104277477247448,0.6269376608177673,0.5003548648981975,0.6451845808619356,0.3962084340572989,-0.2206276149352009,-0.4898706481368503,-0.4722415220224719,-0.0823733877530107,0.7685186644980087,0.3180919358252215,0.8599029403859072,-0.8390522435396673,0.1063990353197856,-0.3038903959564684,1.2217398178631365,0.8690825891213299,-1.0047874320743289,-2.144945778800865,-1.1145334788336927,-0.7666923126076163,1.7970180959475064,1.25850340304458,1.5726057851727464,-1.1569653093458123,1.5708384558622988,0.2826306180579241,-1.617141236584036,0.5182126108877478,0.7346897802516087,-0.11931967504020839
CGGG,-0.4548889984521968,0.2464765858357231,0.7271981566584185,0.1632023444284343,0.188868975575772,0.3572356044413998,-1.5019757710141868,-0.6094213396034368,-0.7093996425819986,0.0077831222194099,-0.0309178216145164,0.4949354007589565,-1.0745756803227318,0.1063990353197856,0.8248453604532716,1.345354927839276,1.1524099173158409,-1.3085000231581194,-1.5243600311308505,-1.383948941299268,-1.0880201047150568,1.845006242445191,0.6126457131407833,1.2727316692938224,-0.6392112703972322,1.8662999656953425,-0.1988699562896149,-1.7671079664063567,0.8995678853689344,1.5625092509576275,0.1938073660038878
TGGA,-0.3314508135849482,0.1879441127615626,0.1978971425512337,0.1114279513674712,0.8388316041601257,-0.767765243531368,-0.3486466775028032,-1.0758327193787167,-0.2061479280645441,2.1102170844991384,0.4531398810691562,0.0470027862977416,-1.192337398714264,0.1063990353197856,-1.4326261523662085,1.210240737865356,1.4080876210596818,-0.934197982193526,-1.639632777350138,-1.0765933382533177,-0.8858189515844809,1.53685858145571,1.4832002658634522,1.385198077325355,-1.328571148107888,1.2856011686995557,0.5968604284463886,-0.7873253315671893,1.34243207508903,0.8450657096790716,0.7941900132863371
TGGG,-0.6030148202928952,0.5976714242806869,-0.1045605797957298,-0.2355138578039305,-0.000185971592076,0.1177240714903018,-1.3607518003801395,-1.213012536959683,-0.8331741828935325,1.3494815422205388,0.1041301236294186,-0.317964753329209,-1.4278608354973283,0.1063990353197856,-0.3038903959564684,1.3338558478414957,1.6914149492541928,-1.2379105732773166,-1.0190470296801153,-1.3460088007189042,-1.207146743691924,1.5848467279533869,0.8373425759596556,1.0853239614464307,-0.8108171091593076,1.581062678532604,0.1153598540988429,-0.9372920613895104,1.723787349570206,1.6728851803850906,3.98480687799544
AGGC,-0.0845744438504508,-1.8021599717598988,2.3907156295667185,0.788231357566452,0.4948757969952634,1.0846547114721612,-1.1724531728680774,0.4770428156378046,-0.7170376762444832,1.320471658022251,0.736902239349739,0.779112735418409,-1.0745756803227342,-0.4610624863857414,1.2589744975339408,0.0309861276763107,0.0631773588091595,-1.7889828332711482,-1.97875046931824,-1.79723441881987,2.954285921970337,0.9794997505862226,-0.4504177220520542,-1.5831353406517477,0.8142461501819465,1.2226238385500263,-0.2876242470217365,-0.8473120234961171,0.6043250922222076,0.8358677155601137,-0.10595344852697039
AGGT,0.1869895628574962,-2.3582184659644247,2.693173351913682,1.139976976403304,0.849181327545227,0.6963276665483598,-1.5019757710141868,-0.2856769701123595,-0.9002662945631685,0.2654395832837702,-0.0558180522290266,1.3132154349039853,-1.4278608354973308,0.6738605570253122,0.4775420507887363,-0.575590342206607,-0.0825524265308416,-1.0955452962067898,-1.3815768455927044,-1.7148124018912096,3.1012942219206807,0.3682521328280216,-0.7519813063635884,-2.224767568032619,0.8307957745400546,0.7172261327653822,-0.3902693733990239,-0.8073208955434978,1.3670356411845914,0.2747900743038203,5.764155471308291
GGGC,-0.5042642723990963,-0.6607767468137665,1.1052703095921248,0.0020078423211061,0.5331697735201378,0.0873686685505981,-2.184558295745414,0.7239664872835427,-1.2238904773887127,0.8410376753484516,0.4742947920955843,0.5547520528044938,-1.3100991171057963,-0.4610624863857414,-0.3907162233726022,-0.198516343946057,0.3954607867663268,-1.8394038689002927,-0.1381718346894153,-0.1429460189637174,-1.4588904820534063,1.2165321105596176,-0.7363825158869032,-0.5809468830519563,0.4529140282999828,1.6328895190744808,-0.5685038751346807,-1.817096876347132,0.5674197430788708,2.243160815760342,0.09899794926550301
GGGT,0.2857401107512951,-1.831426208296979,2.466330060153458,0.399656531294482,0.4265676226535957,0.9513870888100368,-2.514080893891524,-0.0387532984666225,-1.407119095707399,-0.2139943993900289,-0.3184254994831813,1.0888547522900696,-1.663384272280393,0.6738605570253122,-1.1721486701178083,-0.8050928138289749,0.2497310014263257,-1.1459663318359348,0.4590017890361123,-0.0605240020350571,-1.3118821821030628,0.6052844928014166,-1.0379461001984374,-1.2225791104328276,0.469463652658091,1.1274918132898366,-0.6711490015119614,-1.7771057483945127,1.330130292041244,1.6820831745040483,8.92519685125482
CGGC,-0.9733293748946412,0.6562038973548475,0.3491260037247156,-0.3513390464042293,0.0412129219483286,0.5208586300432305,-0.8664679031609758,0.0435545920819564,-0.4453847033141235,0.0922090632954413,0.7970864340417703,1.0303796015565307,-1.4278608354973283,-1.0285240080912683,0.3038903959564685,-0.3912457159921895,0.1435239145658118,-1.571282597084134,-0.9824194965478452,0.751797722960848,-1.3057552724868011,1.440700515178151,-0.1216637648670117,0.7565613804019479,-0.1042737179526444,1.5347405100755078,-0.0841089864146767,-1.667130146524811,-0.4536282498868924,0.4219579802071042,0.0
CGGT,-1.0473922858149904,0.041612930076161,1.2564991707656066,-0.4885145001843066,0.3548095405168943,0.7007699206370974,-1.1959905013070848,-0.7191651936682089,-0.6286133216328088,-0.9628230114430392,0.0043661424630045,1.5644823010421067,-1.7811459906719278,0.1063990353197856,-0.4775420507887361,-0.9978221858751072,-0.0022058707741893,-0.8778450600197756,-0.3852458728223175,0.8342197398895028,-1.1587469725364576,0.8294528974199574,-0.4232273491785422,0.1149291530210795,-0.0877240935945362,1.0293428042908688,-0.1867541127919641,-1.6271390185721917,0.3090822990754808,-0.1391196610491892,-0.7585039419141286
TGGC,-0.9239541009477418,0.1879441127615626,0.6515837260716792,-0.3817631742854137,0.2085334500074642,0.3524231625119323,-0.7252439325269279,-0.5600366052742896,-0.5691592436256574,1.4339074832965708,0.9321343792857048,0.2174794474683651,-1.7811459906719251,-1.0285240080912683,-0.8248453604532715,-0.40274479598997,0.6825289465041636,-1.5006931472033311,-0.4771064950971178,0.789737863541212,-1.4248819114636686,1.180541000686354,0.1030330979518641,0.5691536725545564,-0.2758795567147198,1.2495032229127696,0.230120823973781,-0.8373142415079623,0.3705912143143897,0.5323339096345776,0.835679572904208
TGGT,-0.627702457266345,-0.2803156718317224,1.407728031939085,-0.3363938607783843,0.43415741980267,0.851436371813445,-1.054766530673038,-1.3227563910244549,-0.7523878619443435,0.3788754085580905,0.1394140877069392,0.7515821469539411,-2.1344311458465217,0.1063990353197856,-1.6062778071984762,-1.0093212658728876,0.5367991611641626,-0.8072556101389725,0.1200671286284174,0.8721598804698724,-1.277873611513325,0.5692933829281611,-0.1985304863596736,-0.0724785548263119,-0.2593299323566116,0.7441055171281257,0.1274756975965003,-0.7973231135553431,1.1333017632767524,-0.0287437316217263,16.279735374748974
AGTA,1.4460590485034324,-0.7193092198879272,0.3491260037247156,1.509870320642968,-1.4743315724099868,-0.0470095176337105,-0.7723185894049438,-0.6642932666358229,0.495645847740119,-2.1896753261238358,-1.037275205390259,0.629652639077242,-0.1324819331904738,-0.4610624863857414,0.738019533037136,-0.8645047271508405,-0.3068396742806871,-0.2194056535685881,0.11578578169364,1.7294162971028595,-0.3256899312605313,-0.7469828836371704,-0.7328314127917546,-0.6735437885162655,0.4373299464558041,-0.6403547985556922,-0.0523183618835416,0.2724395591772165,-1.191735232753704,0.7346897802516087,-0.025894310382374518
AGTG,0.483241206538893,-1.5972963160003364,0.9540414484186428,1.5515033377435363,-1.2704420217234935,-0.3968370271217873,-0.0426614077957013,-0.5819853760872438,-0.9054881250059266,-1.3253536880926555,-1.0412906258995331,0.5492233718460285,-0.721290525148135,-1.5959855297967953,0.8248453604532716,-0.6980076313496446,-0.9172457952416512,-0.1713573725572853,-0.0424436759642286,1.2079465030314822,-0.2191473829074472,-0.2966885159765301,-1.0290390214258276,-0.4311809797939682,1.028865779592704,-0.1198457093075205,-0.2450619023341994,0.1424683933312051,-1.3639601954226344,-0.1023276845733787,-0.711923265504607
GGTA,0.952306309034438,-0.6607767468137665,-0.1045605797957298,1.1309031137018983,-1.0599976462264362,-0.4342259990353301,-1.7844237122822806,0.1642728315532067,-0.209073044087426,-1.9592791546971169,-0.0679504745532914,0.7976365944816268,-0.2502436515820059,0.6738605570253122,-1.4326261523662085,-1.7673022890599144,-0.1399660584784092,-0.059837905518706,1.5657856769350265,1.848487449320425,-0.6718575097662772,-0.7765839635135092,-0.8671738781418942,-1.2740877784035507,0.3757266415468829,-0.6045038572855347,-0.1119843248367994,-0.5773719098159386,0.0015377228809785,0.0448402213299261,29.75350758153573
GGTG,0.4585535695654432,-0.6607767468137665,-0.2557894409692117,0.5822012985815889,-1.5271151616740026,-0.544541975572309,-1.054766530673038,0.2465807221017845,-1.6102070168334717,-1.0949575166659369,-0.0719658950625656,0.7172073272504135,-0.8390522435396673,-0.4610624863857414,-1.3458003249500747,-1.6008051932587188,-0.7503721794393726,-0.0117896245074031,1.4075562192771578,1.3270176552490476,-0.5653149614131905,-0.3262895958528689,-1.1633814867759673,-1.0317249696812534,0.9672624746837828,-0.0839947680373629,-0.3047278652874639,-0.707343075661951,-0.170687239787941,-0.7921772434950612,0.05411596466351991
CGTA,-0.1586373547708,-0.1925169622204814,-0.7094760244896572,0.6334419350130573,-0.987549582530728,-1.6021686365325587,-0.466333319697842,0.158785638849967,0.4988522249190471,-1.6309647807482688,0.2060241689710892,0.0048950795411558,-0.0147202147989415,1.2413220787308397,-0.2170645685403345,-1.4864133036974654,0.8734740000634952,0.1608282739406109,0.5770571454998791,0.990036371074449,-0.348155892034153,-0.1047499125459723,-0.1404552902365837,-0.1226168739512259,-0.1031207892663541,0.0496082106871906,-0.4410697423279091,-0.0174961184792706,-1.4746762428526554,-0.1207236728112839,-8.896103147027626
CGTG,-0.627702457266345,-0.4851793275912845,-0.9363193162498782,0.2112404410829361,-0.7012072355429289,-1.869814445378992,0.2633238619114005,0.2410935293985448,-0.9022817478269984,-0.7666431427170886,0.2020087484618154,-0.0755341876900576,-0.6035288067566028,0.1063990353197856,-0.1302387411242006,-1.3199162078962698,0.2630678791025312,0.2088765549519138,0.4188276878420103,0.4685665770030714,-0.241613343681069,0.3455444551146679,-0.4366628988706531,0.1197459347710713,0.4884150438705457,0.5701172999353624,-0.633813282778567,-0.147467284325283,-1.646901205521575,-0.9577411376362608,-0.31781682269784
TGTA,-1.2448933816025882,-0.338848144905883,-1.1631626080101027,0.2736899667337885,-0.7636505666330392,-1.6225289677726054,-0.3251093490637948,0.3069398418374091,1.063297683761856,-1.1192357780997495,-0.8125239294193747,-0.7736451509924488,0.2208032219841228,1.8087836004363664,-0.5643678782048699,-1.4533534487038466,1.340264718730686,0.1934536499359399,0.4921251962075135,1.1640715918575355,-0.8603242520296496,-0.6537052247543014,0.5970013121656286,0.1879866399467124,-1.0232779692682634,-0.9862316945499008,1.1574769456643643,0.1524661753193599,-0.5151371651257908,-0.2954855610714414,0.00037544276871453997
TGTG,-0.9733293748946412,-0.6607767468137665,-0.6338615939029145,0.4252768495102164,-1.3077010259098576,-1.2438268067077352,0.4045478325454477,0.3892477323859882,-0.3378362889841889,-0.2549141400685696,-0.8165393499286492,-0.8540744182236624,-0.3680053699735383,0.6738605570253122,-0.4775420507887361,-1.286856352902651,0.7298585977697221,0.2415019309472427,0.3338957385496447,0.6426017977861581,-0.7537817036765656,-0.2034108570936531,0.3007937035315555,0.4303494486690097,-0.4317421361313634,-0.465722605301729,0.9647334052137064,0.0224950094733485,-0.6873621277947208,-1.1325030258964288,0.0
AGTC,0.2116771998309459,-1.568030079463256,0.8028125872451611,1.4047202646325585,-1.2997662379812802,-0.4642112141343066,-0.4898706481368503,-0.8728065893588897,-0.1955474027356233,0.0350434118570518,-1.025142783065994,1.1452314794996,-0.1324819331904738,-1.0285240080912683,1.2589744975339408,-0.832163564657083,-1.382572710261453,-0.8060692328300516,-0.4584240127788506,1.3842265315228546,-0.349886063754273,-0.7612590775690282,-1.4413905065205757,-1.712552730513198,1.3083198156973073,-0.1838022359336708,-1.0551046248084393,-0.0174961184792706,-1.0687174022759074,1.3325593979837336,0.6937229114243926
AGTT,0.3844906586450941,-1.6265625525374168,1.2564991707656066,1.3369331726867617,-1.204203792058846,0.0529411993628813,0.2868611903504089,-1.9263475883807009,-1.2411238580875368,-1.786716781631795,-1.1064105006917566,0.8510877283117141,-0.0147202147989415,-1.0285240080912683,1.8667552894468775,-0.0417215968929884,-1.665086814207415,-0.5308296971603661,0.6385981918982462,2.2249696416665694,-0.3694508906024022,-0.8130085327519851,-1.6591741209285225,-1.1564633906531203,1.2319694205140863,-0.2785372896492837,-1.168910189939067,0.6423574927389442,-1.179433449705929,0.7254917861326403,1.162575614792979
GGTC,-0.2080126287176995,-1.3339001871666136,0.6515837260716792,0.7935689238613968,-1.0299834484096428,-0.4853119210558104,-1.5019757710141868,-0.0442404911698611,-0.9002662945631685,0.2654395832837702,-0.0558180522290266,1.3132154349039853,-0.2502436515820059,0.1063990353197856,-0.911671187869407,-1.7349611265661569,-1.215699094459175,-0.6465014847801692,0.9915758824625358,1.5032976837404195,-0.696053642260019,-0.790860157445367,-1.575732971870719,-2.313096720400486,1.2467165107883862,-0.1479512946635082,-1.1147705877617038,-0.8673075874724268,0.1245555533587752,0.6427098390620509,2.25617321130848
GGTT,-0.1339497177973503,-1.3339001871666136,0.3491260037247156,-0.0353551217435064,-1.207998690633383,-0.4427403193720755,-0.7252439325269286,-1.097781490191672,-1.9458427499150817,-1.556320610205076,-0.1370857698547893,1.0190716837160991,-0.1324819331904738,0.1063990353197856,-0.30389039595647,-0.9445191588020626,-1.498213198405137,-0.3712619491104837,2.08859808713964,2.3440407938841403,-0.7156184691081455,-0.8426096126283319,-1.793516586278666,-1.7570073805404056,1.170366115605165,-0.2426863483791261,-1.2285761528923316,-0.2074539762542118,0.0138395059287539,0.0356422272109577,5.442288278933761
CGTC,-0.6523900942397948,-1.0412378217958107,0.5759692954849367,0.3404095454205965,-1.373594264795002,-0.662261708923854,-0.1838853784297484,-0.0497276838730997,-0.1923410255566957,0.593753957232618,0.2181565912953543,0.5204739199635138,-0.0147202147989415,0.6738605570253122,0.3038903959564685,-1.454072141203708,-0.2022590359172711,-0.4258353053208524,0.0028473510273884,0.6448466054944436,-0.3723520245278948,-0.1190261064778301,-0.8490143839654047,-1.1616258159481616,0.7678690799751479,0.5061607733092172,-1.443856005252813,-0.3074317961357599,-1.3516584123748483,0.4771459449208409,0.0
CGTT,-0.4302013614787471,-1.4216988967778548,0.8784270178319004,0.4615723003158399,-1.1679797602109918,-0.5649023068123556,0.5928464600575101,-1.1032686828949108,-1.2379174809086089,-1.2280062362562283,0.1368888736695917,0.226330168775628,0.1030415035925908,0.6738605570253122,0.9116711878694056,-0.6636301734396136,-0.4847731398632325,-0.1505957696511669,1.0998695557044926,1.485589715638164,-0.391916851376024,-0.170775561660795,-1.0667979983733518,-0.605536476088081,0.691518684791928,0.4114257195935992,-1.557661570383441,0.3524218150824559,-1.4623744598048696,-0.1299216669302418,-0.0847984884183186
TGTC,-1.0967675597618898,-0.6315105102766863,-0.6338615939029145,0.1658711275759066,-0.8264388885026531,-1.569221918707755,-0.0426614077957013,0.0984265191143424,0.3721044332861134,1.1054829598811378,-0.80039150709511,-0.2580663105700908,0.2208032219841228,1.2413220787308397,-0.0434129137080667,-1.4210122862100891,0.2645316827499197,-0.3932099293255232,-0.0820845982649771,0.8188818262775303,-0.8845203845233913,-0.6679814186861512,-0.1115577815631924,-0.85102230205022,-0.1522881000267601,-0.5296791319278792,0.1546906827394667,-0.1374695023371282,-0.3921193346479941,0.3023840566606834,0.3010780798823696
TGTT,-0.8005159160804931,-0.9241728756474892,0.1978971425512337,0.3868463721866149,-1.2907964777141925,-0.5115952577475065,0.7340704306915572,-0.9551144799074686,-0.6734720220657993,-0.7162772336077085,-0.8816592247208725,-0.5522100617579767,0.3385649403756551,1.2413220787308397,0.56436787820487,-0.6305703184459949,-0.0179824211960423,-0.1179703936558378,1.0149376064121272,1.6596249364212452,-0.9040852113715204,-0.7197308738691162,-0.3293413959711394,-0.2949329621901426,-0.2286384952099811,-0.6244141856434922,0.0408851176088389,0.5223841088810866,-0.5028353820780153,-0.3046835551904098,-0.01553393567841412
ATGA,1.69293541823793,1.007398735799811,-0.4826327327294361,1.7319130785126648,1.5298481355053808,0.2987459256063559,0.851757072886596,2.0024823871381363,0.1833651727335624,-0.9778309417784764,0.3402012433660888,-0.2342980178480755,0.2208032219841228,0.6738605570253122,-0.7380195330371376,0.0337411155924456,0.1373434102768385,0.1092208610025448,-0.4624321386886809,0.1284348545425932,-0.1130683404273243,0.3344003546605149,2.4640279723151823,1.989928688544488,-2.5716458816767465,-0.637099631890173,2.394632422409525,0.0524883554378119,0.0015377228809785,-0.8381672140898401,-1.6204620149595743
ATGG,1.223870315742385,1.1244636819481326,-0.7850904550763964,1.1682660777665106,1.0237466619739335,0.7344570141433571,-0.1603480499907408,-0.4118824022868461,-0.8057427257145735,0.6980860295471657,0.452722332594089,-1.4290816537135496,-0.4857670883650706,-0.4610624863857414,-0.7380195330371376,0.1117192518273941,0.1175007386122401,-0.1897462208455618,-0.1265692253382863,-0.0164082316649426,-0.2211534063009509,0.3572059102950461,1.2500003029727018,1.2440854880280103,-0.8293369077038087,-0.0676130756311898,1.057061097023801,0.2124528672482887,0.7150411396522288,-0.7461872729002824,58.92030747499865
GTGA,2.7298161711228186,1.1537299184852128,-0.860704885663139,2.3532057952442216,1.858969339151598,-0.4978983076405662,-0.0426614077957013,1.486686273033708,-0.0471542055714702,-1.2073985463810109,0.2380686388220342,0.505171457496609,0.1030415035925882,0.1063990353197856,-0.4775420507887361,0.4601653321768033,0.7111544400530925,0.1952332158993215,-0.4063555127894722,0.186375942772742,-0.3524944571284278,0.6304670836645699,1.9259348587246063,2.022021302714483,-2.0553272611065534,-0.1999104590535788,1.8193523157090707,-0.0274939004674254,-0.4905335990302292,-0.8933551788035663,0.034014312464065936
GTGG,1.6435601442910306,0.9196000261885704,-2.372993497397957,0.9056578160552342,1.5498576007165763,-1.7509841485052648,-1.054766530673038,-0.9276785163912756,-1.036262104019606,0.4685184249446313,0.3505897280500343,-0.6896121783688652,-0.6035288067566028,-1.0285240080912683,-0.4775420507887361,0.5381434684117518,0.6913117683884942,-0.103733865948785,-0.0704925994390775,0.0415328565652115,-0.4605795230020518,0.6532726392991012,0.7119071893821219,1.2761781021980052,-0.3130182871336147,0.3695760972054043,0.4817809903233471,0.1324706113430503,0.222969817741021,-0.8013752376140086,0.00848007282901744
CTGA,0.7301175762733904,0.978132499262731,-2.2973790668112146,1.0519071325367175,1.8127405746981464,-2.0626823103983445,0.6634584453745344,2.227457287970919,1.075322636395157,-0.392830662453793,1.4000650406997617,-0.3612963274279663,-0.0147202147989415,0.6738605570253122,-0.1302387411242006,0.6899073679657916,1.738581955670041,0.4793705813859147,-1.406092464162262,-0.7513659828517145,1.689091283735453,0.4567337735731678,2.2945067810738164,1.2262287200591315,-2.124936589856968,-0.3846698374891724,1.865066559381504,-0.0674850284200446,-0.4290246837913309,-2.401826214312321,-2.872958691913926
CTGG,0.4338659325919936,1.007398735799811,-1.843692483290769,0.3692324034132975,1.2849046820579864,-0.8325481156587885,-0.3486466775028032,-0.1869075014540647,0.0862147379470207,1.2830863088718485,1.5125861299277614,-1.5560799632934403,-0.721290525148135,-0.4610624863857414,-0.1302387411242006,0.7678855042007401,1.7187392840054427,0.1804034995378083,-1.07022955081186,-0.8962090690592449,1.5810062178618265,0.479539329207699,1.080479111731332,0.480385519542654,-0.3826276158840307,0.1848167187698108,0.5274952339957799,0.0924794833904311,0.2844787329799193,-2.309846273122763,0.1817036133347296
TTGA,1.125119767848586,1.007398735799811,-1.994921344464251,0.4770512425711793,2.1511765293909546,-2.082302265956935,1.4401902838617922,1.349506455452743,1.4216410079619828,-1.2126984303309507,1.316489866675112,-0.7758320071524325,-0.0147202147989415,0.1063990353197856,-1.3458003249500747,1.2183859195304505,1.0831232113394564,0.9278212041580748,-0.2161591952114871,0.3116901653549842,-0.1825754559514599,-0.7536945125179653,2.0106465859540767,1.796032662317666,-1.997202891307293,-1.530717865090472,1.5192475087952602,0.0824817014022763,0.1368573364065612,-0.4518514610936937,-0.04216720280122371
TTGG,0.4585535695654432,0.7440026069660886,-2.0705357750509936,-0.3956408466522698,1.9842009921113224,-2.104513536400622,0.4280851609844561,-1.0648583339722395,0.432533109513847,0.4632185409946909,1.4290109559031123,-1.9706156430179065,-0.721290525148135,-1.0285240080912683,-1.3458003249500747,1.296364055765399,1.063280539674858,0.6288541223099685,0.119703718138915,0.1668470791474538,-0.2906605218250838,-0.730888956883434,0.7966189166115922,1.0501894618011884,-0.2548939173343554,-0.9612313088314888,0.1816761834095363,0.2424462132127531,0.8503607531778115,-0.359871519904136,2.4056198214490228
ATGC,2.2607510686272736,0.8025350800402491,0.5003548648981975,1.415929153851942,1.388056925129495,1.0095065798043537,0.4751598178624705,1.3549936481559817,-0.3421648792991542,-0.0965059297840407,1.3409031969594012,-0.5161533325844746,0.1030415035925882,-0.4610624863857414,-0.6511937056210038,-0.6263779455301374,-0.160134019842427,-0.2692335005432726,0.0798797642777598,0.0095467553141133,-0.3327757538366455,0.2040409462112489,1.91508607587428,1.212925333453825,-2.119136484096126,-0.7535005103497583,2.823295367711641,-0.2574428861949859,-0.7488710430336192,-0.6358113434728091,19.231862722969588
ATGT,2.334813979547623,0.4806064781323657,0.9540414484186428,1.206696555090112,1.079980159032983,1.4774240104847,0.1456372197163618,0.9050438464904166,-0.1073169106791571,-0.0253465354660353,-0.7144067453845946,-1.5935438935683468,-0.2502436515820085,1.2413220787308397,-0.7380195330371376,-1.7132805694870086,0.1560475679934678,0.155489576050466,0.2778191126504435,0.5846607095560038,-0.5143555869754647,-0.4994775860977082,0.8388868171221316,0.3982568344990148,-0.9480607567015564,-0.9029117781383232,1.5400135119141536,0.1024772653785859,-0.1952908058835024,-1.0773150611826816,0.48872838737771956
GTGC,2.063249972839676,0.8025350800402491,-0.6338615939029145,1.549368311225558,1.339068234440016,-0.0029571645870639,-0.4192586628198267,0.8391975340515522,-0.5726842576041868,-0.326073534386575,1.2387705924153465,0.2233161427602099,-0.0147202147989415,-1.0285240080912683,-0.3907162233726022,-0.1999537289457796,0.4136770099338272,-0.1832211456464959,0.135956390176961,0.0674878435442621,-0.5722018705377464,0.5001076752152961,1.3769929622837034,1.24501794762382,-1.6028178635259356,-0.3163113375131691,2.2480152610111874,-0.3374251421002243,-1.240942364944827,-0.6909993081865458,-0.09949272289999617
GTGT,1.766998329158279,0.7147363704290082,0.1978971425512337,0.9830525273319316,1.4370456158189735,0.6152565294289003,-0.7487812609659362,0.3892477323859882,-0.3378362889841889,-0.2549141400685696,-0.8165393499286492,-0.8540744182236624,-0.3680053699735383,0.6738605570253122,-0.4775420507887361,-1.286856352902651,0.7298585977697221,0.2415019309472427,0.3338957385496447,0.6426017977861581,-0.7537817036765656,-0.2034108570936531,0.3007937035315555,0.4303494486690097,-0.4317421361313634,-0.465722605301729,0.9647334052137064,0.0224950094733485,-0.6873621277947208,-1.1325030258964288,0.4331479341499535
CTGC,1.1004321308751364,0.9488662627256508,-1.0119337468366207,0.527224365743659,1.2862846451760002,-0.2035989742617074,0.2868611903504089,1.5799685489887645,0.54979258436244,0.4884943495406421,2.4007669942930745,-0.6431516421643654,-0.1324819331904738,-0.4610624863857414,-0.0434129137080667,0.0297883068432085,1.441104525550776,0.1009162198400972,-0.8637805611958213,-0.8702540820801943,1.4693838703261315,0.3263743651239018,1.7455648846329133,0.4492253649684687,-1.6724271922763505,-0.5010707159487627,2.2937295046836206,-0.3774162700528424,-1.179433449705929,-2.1994703436952894,0.0051740913137909
CTGT,0.7794928502202898,0.7440026069660886,-1.08754817742336,0.5010702908984302,1.546407692921543,-0.3520442983936862,-0.0426614077957013,1.130018747323198,0.7846405529824371,0.5596537438586475,0.345457051949078,-1.7205422031482376,-0.4857670883650706,1.2413220787308397,-0.1302387411242006,-1.0571143171136623,1.757286113386671,0.5256392964338362,-0.6658412128231451,-0.2951401278382983,1.2878040371873152,-0.3771441671850553,0.6693656258807654,-0.3654431339863383,-0.5013514648817795,-0.6504819837373276,1.0104476488861394,-0.0174961184792706,-0.6258532125558225,-2.640974061405162,-0.0960484999083322
TTGC,0.2363648368043956,0.6562038973548475,-1.3900058997703235,-0.5440251896517309,2.008005355897055,-1.614384835276586,1.0635930288376667,0.7020177164705883,0.8961109559292663,-0.3313734183365153,2.3171918202684245,-1.0576873218888316,-0.1324819331904738,-1.0285240080912683,-1.2589744975339408,0.5582668584078677,0.7856457812201912,0.5493668426122573,0.3261527077549537,0.1928020661265044,-0.4022828693607784,-0.8840539209672312,1.4617046895131736,1.0190293072270031,-1.5446934937266752,-1.6471187435500625,1.9479104540973768,-0.2274495402305215,-0.6135514295080365,-0.2494955904766626,0.8750189527131609
TTGT,0.927618672060988,0.7147363704290082,-0.0289461492089906,-0.4404764035298049,1.6633595671731862,-0.126229715549531,0.7340704306915572,0.2520679148050231,1.1309589245492633,-0.2602140240185095,0.2618818779244287,-2.135077882872704,-0.4857670883650706,0.6738605570253122,-1.3458003249500747,-0.5286357655490038,1.101827369056086,0.9740899192059964,0.5240920561276298,0.7679160203684003,-0.5838627024995976,-1.5875724532761883,0.3855054307610258,0.2043608082721929,-0.373617766332103,-1.796530011338627,0.6646285982998957,0.1324706113430503,-0.0599711923579197,-0.6909993081865458,-6.136054083029397
AATA,0.7794928502202898,-1.5972963160003364,-0.1801750103824724,0.6003490239844006,-1.6319923586430278,-0.8869657282458248,0.8988317297646127,-0.3350617044415069,-1.1614565412544824,-1.4837579675873382,-3.93028856177672,-0.9403197483920498,1.2806586875079131,1.2413220787308397,0.738019533037138,-1.1029908550214742,-0.1472850767153509,0.5831785959165078,0.1281815278065441,-0.5051982500002573,0.8844075574359018,-0.0412131591411221,-0.9812392190294432,-0.7446096573302262,1.3876123752771026,0.4023306604278734,-0.9854209621097336,2.022051407104304,0.3951947804099511,-0.7553852670192298,-0.009873913377284358
AATG,0.6313670283795914,-1.743627498685738,0.1222827119644912,0.6553259568223305,-1.6240575707144504,-0.936570898903392,1.6284889113738552,-0.5984469541969596,-1.1820760042467011,-0.8997684690339431,-1.7522130594191894,-1.2586852416110774,1.3984204058994456,0.1063990353197856,0.2170645685403348,-0.43089358556787,-1.6540269644271466,0.3375984929698484,0.416878003828958,-0.5836509073760701,0.1886308224041365,-0.0463727238432333,-0.4044488553799621,-0.3018302735746487,0.6683114110712919,0.2461179468422405,-0.7513655331809898,1.2322266300400764,0.0753484211676629,-0.7461872729002824,2.78950074433754
GATA,0.8782433981140887,-1.568030079463256,-0.4826327327294361,0.5779312455456331,-1.4412124575776628,-1.524059002138924,0.1220998912773534,0.5977610551090549,-0.6497490592973676,-0.2203712760824481,-2.319546170020148,-0.189699506687948,1.0451352507248486,1.2413220787308397,-0.0434129137080667,-1.6908813199079988,-0.2147826893449271,0.4663204309877835,0.4383802332300447,0.1724157437628546,0.6889244246502603,-0.0210083596978976,-1.2013815477868306,-0.9755751202181516,1.3521415832827277,0.5794417204379669,-1.212952475308965,1.2722177579926957,0.1614609025021227,-0.1207236728112944,-0.0051268564714934805
GATG,0.7301175762733904,-1.3924326602407744,-0.3314038715559543,0.4647748400928067,-1.3428900854192016,-1.3874596889102464,0.851757072886596,0.3343758053536022,-0.6703685222895862,0.3636182224709464,-0.1414706676626169,-0.5080649999069756,1.1628969691163809,0.1063990353197856,-0.5643678782048699,-1.0187840504543944,-1.721524577056723,0.2207403280411244,0.727076709252451,0.0939630863870417,-0.0068523103815051,-0.0261679244000009,-0.6245911841373495,-0.5327957364625739,0.6328406190769167,0.4232290068523341,-0.978897046380228,0.4823929809284673,-0.1583854567401655,-0.1115256786923261,31.77559378149794
CATG,0.2857401107512951,-1.1583027679441316,-1.1631626080101027,0.2293881664857479,-0.855073123201433,-2.2259351481594463,1.298966313227745,1.6732508249438205,-0.8213242162277852,0.0903725546037469,0.1394453898683899,0.4168217556222623,0.9273735323333164,-0.4610624863857414,-0.7380195330371376,-0.9061888921427944,-1.7434816317675492,0.519707409889231,0.145245905025543,-0.3618195877054216,-0.0067190758998042,0.2874189524949511,-0.6669698530013212,-0.2616833868291591,0.5180728347115716,0.668195736215297,-1.0060745646704712,0.3824151610469204,-0.0968765415012672,-1.4544328200598702,0.3584640377290206
TATA,-0.0351991699035513,-1.3046339506295332,-0.7850904550763964,0.2213818170433309,-0.9944493981207956,-1.7954066893926386,-0.1603480499907401,2.2000213244547258,-1.1567755250480156,-0.4567588447439797,-1.3990443466864837,-1.1390370285239908,0.6918500955502519,1.8087836004363664,0.3038903959564685,-2.2503834310500026,1.2700021436560427,1.0108676157825487,0.2015612677426693,0.2348271786738858,0.9625692846446304,-0.5214441881221361,-0.760986121918631,-0.4760935241638147,1.1169562207101007,-0.1069750096733771,-0.5705598686775694,1.962064715175375,0.5428161769833093,-1.472828808297786,0.004701544922458999
TATG,0.3351153846981946,-1.0412378217958107,-1.238777038596842,0.3115866874278954,-0.7146618759435603,-2.1585609611469283,0.5693091316185033,1.9366360746992728,-1.1773949880402343,0.1272306538094152,0.779031155671048,-1.4574025217430182,0.8096118139417816,0.6738605570253122,-0.2170645685403345,-1.578286161596399,-0.2367397440557534,0.7652875128358899,0.4902577437650831,0.156374521298073,0.266792549612865,-0.5266037528242553,-0.1841957582691499,-0.033314140408234,0.3976552565042899,-0.26318772325901,-0.336504439748832,1.1722399381111477,0.222969817741021,-1.463630814178828,3.944907024504136
AATT,0.2857401107512951,-1.8899586813711395,0.5003548648981975,0.3852451022981314,-1.6409621189101156,-0.6863239185711812,1.9580115095199648,-2.87014473333774,-0.7421877090395659,-1.5509127605606872,-1.666977473419724,-0.3020050745684753,1.8694672794655744,0.6738605570253122,1.1721486701178072,0.0444017210070545,-1.5645722970867442,0.155489576050466,1.1661482016230134,0.0555508617821812,0.0939236244185091,-0.7125018902620882,-1.6489834324132655,-1.0849985313804007,1.402507359584212,0.0272807667022587,-1.6296728613072533,2.082038099033233,0.2475733838365824,-0.0379417257406841,0.0
GATC,0.2363648368043956,-1.450965133314935,-0.3314038715559543,0.1978965253455745,-1.457772014993825,-1.1920005090057977,0.4045478325454477,-1.004499214236616,1.139926058748474,-0.1091552551852923,-0.4413903312923815,-0.3624496195270593,1.3984204058994456,0.6738605570253122,-0.3907162233726022,-1.1313792087659946,-1.6995675223458973,-0.0782267538069822,1.2591123185228914,0.6298073572857156,-0.1772704717293548,-0.2778400248696263,-1.5238868666815115,-0.8336812209138301,1.1247837239615837,0.3556026988363234,-1.1097500294975018,0.5823708008100154,-0.2198943719790639,1.2313814626752075,-2.4480805152112826
GATT,0.2116771998309459,-1.7143612621486577,-0.0289461492089906,0.115698004403427,-1.5816237048355353,-0.9917288871718828,1.1812796710327065,-1.9373219737871776,-0.230480227082451,-0.2875260690557971,-0.0562350816631514,0.4486151671356264,1.6339438426825097,0.6738605570253122,0.3907162233726024,-0.54348874387947,-1.632069909716321,0.0386314111217417,1.4763469070465065,0.7331648555452931,-0.1015595083671325,-0.6922970908188637,-1.869125761170653,-1.315963994268326,1.3670365675898368,0.2043918267123523,-1.8572043745064848,1.3322044499216237,0.0138395059287539,0.5967198684672617,0.1656319553482876
AGCG,0.8288681241671892,-0.7193092198879272,1.3321136013523458,0.5725936792506885,-1.170049704888012,0.8170089026257282,0.1456372197163618,-0.1265483817184401,-1.7696586853430347,0.8119497868094334,-1.3219997058731914,-0.8577011840622554,-1.3100991171057963,-1.5959855297967953,1.7799294620307438,-0.6817172680194558,0.3216200249980673,-1.6021284071160813,-0.1730963785204916,-1.6121389437487526,-0.6860760684683914,0.9719911157758347,0.3203671231606103,-0.0824899922983758,-0.3216118572961907,0.7162645794685207,0.3232821532568473,-1.1672410471170689,-1.9913511308594247,1.4245393391732808,0.421787956059248
GGCA,1.396683774556533,-0.8071079294991679,0.8784270178319004,1.129835600442909,-0.8599029941144802,0.2576550752855326,-0.7252439325269286,1.2068394451685394,0.95321546507111,0.3769215439517583,0.3388446699737229,0.0668589032239008,-1.192337398714264,-1.0285240080912683,-0.7380195330371376,-1.1408419933475016,0.4048941880494965,-1.5801804269010418,0.2877399537508676,0.840337563472171,-0.665959538273503,0.3606735852167938,-0.5546507426266083,-0.7783804764938751,0.9085872298358832,0.7179583247253798,-1.141517237245694,-1.307209994951238,-1.0933209683714689,0.6427098390620405,0.0
GGCG,1.2485579527158348,-0.1925169622204814,0.5759692954849367,0.3793737793736924,-0.9289011500151548,0.5367767071945395,-0.8664679031609758,0.3672989615730338,-0.8706515712561349,1.1837432387058318,-0.0293657294917621,-1.410717778904824,-1.5456225538888608,-1.0285240080912683,0.1302387411242009,-1.139644172514399,0.3229211837957463,-1.7498323820767532,0.5526025374504622,-0.0991289139968529,-1.0045365044062664,0.5536468980998099,-0.5484933253331823,-1.047749048885541,0.8123223188123748,0.8324802045406435,-0.8116215990645621,-1.7971013123708202,-1.8560315173338424,0.7530857684895035,0.0
CGCA,0.6313670283795914,0.4220740050582051,0.6515837260716792,0.5544459538478768,-1.524010244658472,0.5556562870716745,0.5928464600575101,0.1971959877726372,1.4099373348505553,0.3430300991940756,-0.0891292614630713,0.0049452344058098,-1.0745756803227318,-0.4610624863857414,0.3038903959564685,-0.345369178084378,1.3412405878289446,-1.2278263661514877,-0.8880547903161502,-0.1525996555461302,-0.7545623451468148,0.7333787265034187,1.2589920869567564,0.973100948708681,-0.910282898391555,0.43093907640699,0.2529475039921678,-1.3871922508564742,-2.163576093528355,0.2931860625417151,-0.23974100826447137
CGCG,0.2363648368043956,-0.0461857795350799,0.3491260037247156,0.5176167464127587,-1.2124835707669268,-0.9128788770967936,0.4516224894234629,-0.6423444958228685,-0.4139297014766893,1.149851793948149,-0.4573396609285564,-1.472631447722915,-1.4278608354973283,-0.4610624863857414,1.1721486701178072,-0.3441713572512759,1.2592675835751943,-1.3974783213271988,-0.6231922066165556,-1.0920661330151489,-1.0931393112795782,0.9263520393864269,1.2651495042501824,0.7037323763170151,-1.0065478094150633,0.5454609562222487,0.5828431421732998,-1.8770835682760585,-2.926286642490728,0.4035619919691884,-20.66393842483358
TGCA,-0.356138450558398,0.1294116396874019,0.3491260037247156,-0.2595329061311814,-1.0648275171394834,0.0285088018748242,0.7340704306915572,1.0367364713681428,1.8075096059817095,0.0907734514926399,0.85686086587287,0.1070704182192732,-0.721290525148135,-0.4610624863857414,-0.5643678782048699,-0.3465669989174801,1.4232135920826954,-1.0581744109757762,-0.3866862516237939,-0.3367702313039595,-0.5258381474477152,0.5758232385267656,1.684160122121528,0.85673021343033,-1.644943484015727,-0.0197559505350703,1.30858076267567,-0.8973009334368911,-1.4008655445659712,0.1828101331142521,35.31229489172015
AGCT,-0.0105115329301016,-1.1290365314070512,1.7858001848727914,0.2891689089891279,-0.9075117216859456,1.0750298276132313,-0.1603480499907401,0.3892477323859882,-2.174716467308428,-0.0209607348571606,-0.5015294492748744,0.4953370443581143,-1.192337398714264,-2.730908573207849,2.387710253943681,-1.0192631787876354,-0.6160275335790597,-1.806778492904964,-0.1904551978149339,-1.6419862153378797,-0.6811013556375466,1.0614515357327563,-0.5574590461752532,-0.6972953904495992,0.1368709278820772,0.9821031904863128,-0.1015217062153251,-0.4573985259580809,-1.0564156192281215,2.445516686377373,-13.058935071985417
GGCC,0.1623019258840464,-1.2168352410182923,1.180884740178864,-0.198150893739318,-0.999624259813346,0.753336594020492,-2.184558295745414,1.376942418968936,-1.4248974434917965,-0.5006054515421715,0.9668637680793584,0.0118268184289324,-1.663384272280393,-1.5959855297967953,-0.9116711878694052,-1.935116987777523,-0.6134252159837023,-2.102186442826308,0.8799929463958425,1.9621055493367596,-0.9104992319131386,0.5103988394991888,-1.229308204421356,-1.115860832353064,1.0804102753654912,0.9712261701649302,-1.0467542000089416,-1.7171190564655838,-0.785776392176956,1.1026095450098288,-0.0920095667372792
GGCT,0.5326164804857925,-1.450965133314935,1.7858001848727914,-0.0924670810994141,-1.090356834822733,1.1575817160956023,-1.1724531728680774,0.8830950756774621,-1.275709353221528,0.3508327170392374,0.791104527106555,-0.0576795504844543,-1.4278608354973283,-2.163447051502322,0.738019533037136,-1.477190083282579,-0.6147263747813807,-1.954482467865636,0.5352437181560199,-0.1289761855859802,-0.9995617915754216,0.6431073180567314,-1.4263194946690458,-1.662554447036761,1.2708051039906416,1.0983188155584354,-1.2364254585367345,-1.0872587912118323,-0.9210960057025388,1.7740631156936062,-0.0257721673167844
TGCT,-1.07207992278844,-0.338848144905883,0.7271981566584185,-1.0975308144374902,-0.8423084643598082,0.261727141533543,0.2868611903504089,0.7129921018770655,-0.4214152123109293,0.064684624580119,1.309120723005702,-0.0174680354890819,-0.9568139619311996,-1.5959855297967953,0.9116711878694056,-0.6829150888525578,0.403593029251818,-1.4324764519403703,-0.139182487218634,-1.306083980362111,-0.8594404007496337,0.8582569713667033,0.8124913700790943,-0.0274437571125592,-1.2827256098609685,0.3606045402979802,1.2136725413846297,-0.6773497296974865,-1.2286405818970516,1.3141634097458177,-8.00211079634986
ATAA,2.1373128837600253,1.1537299184852128,-0.2557894409692117,2.034019330806532,1.251095585666656,0.4042494602138698,0.8988317297646127,1.5744813562855255,-0.0186099735503011,-0.3044279849655721,-2.5305765587518168,0.2561794690489978,0.8096118139417816,1.2413220787308397,-0.7380195330371376,-0.9320618221378004,0.6890347404925564,2.2583433561130417,-0.2118778482767098,0.5011981808999019,0.4929046008538225,-0.1534931172927476,0.8406135002784931,1.1909930835566551,-0.0047422428148165,-0.7003504313259624,1.7294880694651815,1.8720846772819817,0.838058970130036,-0.8289692199708822,-0.02859016191868712
GTAA,2.5076274383617707,1.1829961550222932,-0.9363193162498782,2.159985895367225,1.4649898689587468,-0.1228980249829778,0.0044132490823146,0.7129921018770655,1.1313851578984937,-0.814327729045891,-0.450618240429066,0.7577127184058682,1.3984204058994456,0.6738605570253122,-1.085322842701673,-3.743190103440747e-05,0.3665100035179786,2.050727327051857,0.291124711302774,1.0021564058256154,-0.548840799232133,-0.312880320651452,1.1755183589714675,1.4235022727599336,-0.7992604195873343,-0.9398830613231728,1.5810069321441296,1.1322488101585273,0.1983662516454595,-0.0379417257406841,-0.03625698123871972
CTAG,0.014176104043348,1.270794864633534,-2.4486079279846966,0.2144429808599029,1.2017619041976737,-1.082054720309545,-0.0661987362347089,1.1903778670588236,0.2751941086945318,0.0315832249061257,0.7469666029282538,-0.2114571404755767,1.3984204058994456,1.8087836004363664,0.8248453604532716,0.7348256492071212,0.2196417042300087,1.7559125657849732,-0.1737860626611632,-0.0279405699774645,-0.5670939232252007,-0.148025936266931,0.4497771388905098,0.6798374045530966,-0.4717065694332585,-0.2255107128837995,0.4756411098342019,0.7423353126204922,-0.170687239787941,-1.6567886906769014,0.1270013790874212
TTAA,-0.9486417379211916,1.2415286280964537,-1.4656203303570663,0.4135342036613381,2.1566963818630085,-1.1668277358362849,1.4872649407398089,0.9489413881163252,2.17874545078372,0.2798264051480295,-0.1007170501338275,0.1706661570954044,0.9273735323333164,0.6738605570253122,-1.7799294620307438,0.3862597867744019,0.1080673373290704,3.505819096443534,-0.1545465277677425,0.433641993558723,-0.3960940338586574,-0.3836600402234951,1.8623407922866704,2.2008668309121417,-1.6514806420545214,-1.2847454744812463,2.2809392578370464,1.7821046393885884,1.1333017632767628,-0.1851096316439785,3.37802618490435
TTAG,-1.2942686555494878,1.475658520393096,-1.7680780527040298,-1.0505602310419777,1.279039838806429,-0.7344483378658382,0.7105331022525504,1.0696596275875745,1.4860592509904134,0.0725758598985964,-0.2736606536988839,-0.4514723781020274,1.1628969691163809,1.2413220787308397,-0.4775420507887361,0.5605427179907617,0.1638545207795396,2.630865831114254,0.0782643118098026,-0.3769359108569259,-0.272223496716429,0.0744365960110735,1.171856487522894,1.4609895935783963,-1.179223965755184,-0.1678880877911074,0.5084995396678034,1.262219976004541,0.4813072617444109,-0.92094916116044,0.8092557718471621
ATAC,0.7548052132468401,1.0951974454110522,-0.4070183021426935,0.4706461630172458,0.6966954030047363,1.12426481043007,-0.5840199618928815,1.3385320700462655,-1.354889087795477,-1.6793762137951191,-1.7470673673684465,0.0633362434164871,1.2806586875079131,1.2413220787308397,-0.0434129137080667,-1.3183590408132368,0.9474774066814644,0.8032515867213638,-0.0034579535971299,0.0561867300600691,0.6116765733934845,0.092054621823156,0.3500856208064525,0.2230233369168318,-0.155898003966566,-0.1695818330479665,0.9575819197011762,1.2222288480519217,-0.0968765415012672,-0.6818013140675879,-0.09908368560334253
ATAT,0.483241206538893,0.1586778762244822,1.6345713236993094,0.122636840586855,0.8108873510203527,2.1519062562913422,0.3103985187894165,2.2000213244547258,-1.1567755250480156,-0.4567588447439797,-1.3990443466864837,-1.1390370285239908,0.6918500955502519,1.8087836004363664,0.3038903959564685,-2.2503834310500026,1.2700021436560427,1.0108676157825487,0.2015612677426693,0.2348271786738858,0.9625692846446304,-0.5214441881221361,-0.760986121918631,-0.4760935241638147,1.1169562207101007,-0.1069750096733771,-0.5705598686775694,1.962064715175375,0.5428161769833093,-1.472828808297786,0.03207258016198442
GTAC,-0.4302013614787471,0.7147363704290082,-1.3143914691835843,0.2304556797447368,1.2507505948871525,-0.7936783923823367,-1.478438442575179,0.4770428156378057,-0.2048939563466814,-2.1892759578754384,0.3328909509543042,0.5648694927733576,1.8694672794655744,0.6738605570253122,-0.3907162233726022,-0.3863346505764709,0.6249526697068863,0.5956355576601788,0.4995446059823539,0.5571449549857826,-0.430068826692471,-0.0673325815355404,0.6849904794994306,0.4555325261201101,-0.9504161807390826,-0.4091144630451769,0.8091007823801308,0.4823929809284673,-0.7365692599858332,0.1092261801626102,-6.658123085850197
CTAC,-1.713958484098133,1.1244636819481326,-1.1631626080101027,-0.9277962062582508,1.2297061573374468,-0.0114714849238119,-0.772318589404943,0.8337103413483136,-0.3683988057573361,-1.1361144586739882,1.7034193978766805,0.2178381690893444,1.6339438426825097,1.2413220787308397,0.2170645685403329,0.1742454993153252,0.4222971869684477,1.175774061722576,-0.198177007559136,0.3376258835983517,-0.5721924878277671,-0.3605748333855961,0.6497335641822494,0.4517448952470183,-1.0951190068843455,-0.8115995012959374,1.4761746782394394,0.6123641467744798,-0.4536282498868818,-0.7737812552571456,-0.32595016695602597
CTAT,-0.356138450558398,1.1829961550222932,-0.4826327327294361,-0.3059697328971998,0.9185244742254048,0.6074825847736094,0.1220998912773542,1.695199595756775,-0.1702852430098755,0.0865029103771516,2.051442418558643,-0.9845351028511334,1.0451352507248486,1.8087836004363664,0.56436787820487,-0.7577788909214409,0.7448219239430256,1.383390090783761,0.0068422137806631,0.5162663322121683,-0.2212997765766212,-0.9740736433308962,-0.4613381785428341,-0.2473719658336251,0.1777352177923213,-0.748992677921348,-0.0519671101393063,1.352200013897933,0.1860644685976841,-1.5648087494873435,-3.3997885680416084
ACGA,1.396683774556533,1.2122623915593735,-0.0289461492089906,2.248589495863307,1.5184634397817698,0.6345062971467625,-0.1838853784297484,0.0051442431592862,1.238110930538461,-0.8817199417259647,-0.3609227751687058,-0.3188387442410552,-1.663384272280393,1.2413220787308397,-0.5643678782048699,-0.6938152584337872,1.264960153315038,-0.3493139688954439,-0.827943512194015,-0.0250020877842143,-0.6267341809354608,0.5929518747329525,1.6046610232886127,1.5255271338276508,-2.020299748229591,-0.2346410584090493,2.4245918545140768,-0.6273608197567125,-1.4623744598048696,-0.4978414316884725,-1.0317331947175874
ACGG,1.149807404822036,1.4171260473189355,-0.860704885663139,1.0487045927597507,1.1534631950672014,0.1751031868031614,-1.1959905013070855,-0.7246523863714475,0.0249237791952471,-1.6875498108508982,-0.1364173249733993,-0.2394608663460159,-1.5456225538888608,0.6738605570253122,0.738019533037138,-0.7169332005126583,1.0112341877677151,-0.6571788805604586,-0.7173553128686736,0.004074434377172,-0.399374229267303,0.684202062391423,0.671372487813438,1.2325025393897058,-0.7136777293314477,0.2461179468422405,1.4932408296524435,-1.0672632272355227,-1.1671316666581426,-0.3046835551903993,-5.68102033127876
GCGA,0.9769939460078876,1.3293273377076948,-1.1631626080101027,1.2931651290682151,1.2486806502101324,-0.4168271705211067,0.1456372197163618,-0.2362922357832121,0.857026414893793,1.1563185547017234,-0.7590837933971695,-1.5499123088454003,-1.4278608354973283,0.1063990353197856,0.0434129137080669,0.4273450413498049,1.3335962798925831,-0.9110636246695653,-0.9441738583163066,-1.3692083584937953,-0.8610260787360772,1.090870842326905,1.7338234391696787,1.098954097898186,-1.5864249987829857,0.5851316459102202,0.4893633446421301,-1.307209994951238,-1.819126168190505,-0.1207236728112944,0.06282025303965941
GCGG,0.1623019258840464,1.446392283856016,-1.238777038596842,0.3660298636363308,0.8650509034023822,0.336134897519896,-0.8664679031609758,-0.9660888653139458,-0.3561607364494208,0.3504886855767898,-0.5345783432018629,-1.4705344309503612,-1.3100991171057963,-0.4610624863857414,1.3458003249500747,0.4042270992709339,1.07987031434526,-1.2189285363345796,-0.8335856589909653,-1.3401318363324035,-0.6336661270679167,1.1821210299853753,0.8005349036945042,0.8059295034602408,-0.2798029798848414,1.065890651161505,-0.4419876802194963,-1.7471124024300473,-1.5238833750437784,0.0724342036867892,0.0013378142788766797
CCGA,0.3844906586450941,1.0366649723368917,-2.221764636224476,0.900854006389784,1.535367987977435,-1.6717639505894455,-0.4898706481368503,-0.5600366052742896,1.268436546136549,0.1219019877427109,-0.4977312673631179,-0.091519239365159,-1.3100991171057963,0.1063990353197856,0.2170645685403348,1.1757434978720147,1.1541990106626487,-0.7325138396769458,-1.6162020849864878,-0.1974476378725974,-0.1528566603641014,0.3167823288484245,1.9033446304110488,1.1586759677914813,-1.504687150399132,-0.1947939369234876,0.7562584699781174,-1.1772388291052245,-0.4167229007435555,-0.4518514610936937,-0.0001865939153702
CCGG,0.112926651937147,1.2122623915593735,-3.3559810950255877,0.1632023444284343,1.048241007318673,-2.2470358550809504,-1.5019757710141868,-1.2898332348050232,0.0552493947933347,-0.683927881382223,-0.2732258171678114,-0.0121413614701197,-1.192337398714264,-0.4610624863857414,1.5194519797823425,1.1526255557931435,0.9004730451153258,-1.0403787513419605,-1.5056138856611463,-0.1683711157112057,0.0745032913040591,0.408032516506895,0.970056094935874,0.8656513733535361,-0.1980651315009886,0.2859650683277972,-0.1750925548835157,-1.617141236584036,-0.1214801075968287,-0.2586935845956205,-0.1848474589506065
TCGA,0.5819917544326919,1.1537299184852128,-1.843692483290769,0.5000027776394413,1.7647868563471776,-1.7328449443095857,0.5222344747404872,0.1697600242564442,2.4818420995989205,-0.430420325325325,-0.5400816145357098,-1.136771619105829,-1.4278608354973283,0.6738605570253122,-1.085322842701673,1.198861439950886,1.407924976209972,-0.4246489280119312,-1.3273358405602154,-0.4880683439688016,0.5502292057412763,0.5907426302263638,1.8199947023501803,1.21808220177869,-1.389164582591138,0.1458341130924406,0.2510226444337802,-0.7373364216264153,-0.7119656938902823,-0.6450093375917669,0.0006197051597468799
ACGC,-0.1339497177973503,1.3000611011706145,-0.0289461492089906,0.0681936643784197,0.890925211865135,1.296772344209376,-0.560482633453874,-0.4009080168803701,-0.0328451858320217,-0.8881867024795386,-0.0591786427000928,-0.2415578831185697,-1.663384272280393,0.6738605570253122,0.56436787820487,-1.465331657034868,1.190631456997649,-0.8357286655530779,-0.5069618604942564,0.2521401376944269,-0.8588474134789645,0.4284330717924824,1.135987088369116,1.13030541224648,-1.4404225588616708,-0.2743117480970158,2.518071652045246,-1.197234393081534,-2.5695349341050924,0.0264442330920103,0.0
ACGT,1.1991826787689353,0.9488662627256508,1.2564991707656066,1.0449682963532894,1.2124566183622782,2.338851115859043,-0.8900052315999833,-0.1594715379378717,0.0351295950763204,-1.5810129585114887,-0.1499503593176832,-0.4382830297553738,-1.8989077090634572,1.8087836004363664,-0.0434129137080667,-2.58649195681846,1.121995330420104,-0.2739790097789569,0.2772779758631416,0.4690482953954068,-0.2995346889231848,0.1163143637152012,-0.2525007376204685,-0.1113373358846228,-0.0838502370893626,0.1614218624094603,0.6918763669389874,-0.5173852178870096,-2.212783225719467,-0.3506735257851782,-0.5580335658625107
GCGC,1.0510568569282368,1.2122623915593735,-0.7094760244896572,1.3107790978415326,1.0510009335547,0.4571863214379917,-0.2309600353077636,-0.6423444958228685,-0.4139297014766893,1.149851793948149,-0.4573396609285564,-1.472631447722915,-1.4278608354973283,-0.4610624863857414,1.1721486701178072,-0.3441713572512759,1.2592675835751943,-1.3974783213271988,-0.6231922066165556,-1.0920661330151489,-1.0931393112795782,0.9263520393864269,1.2651495042501824,0.7037323763170151,-1.0065478094150633,0.5454609562222487,0.5828431421732998,-1.8770835682760585,-2.926286642490728,0.4035619919691884,0.0
TTTT,-0.2327002656911492,-0.4559130910542043,0.3491260037247156,-0.5087972521050962,-0.4673034870396423,0.1691801813515121,2.546444720495161,-2.8042984208988773,-1.487905416656588,0.7566117342724198,-0.3537094635607023,0.0193078520069195,1.6339438426825097,-1.5959855297967953,-1.6062778071984762,0.6116896675642226,-2.1178900757995605,0.908839167215338,0.3016211733975294,1.3256206719112793,-0.7554949865187235,-0.7627132638265343,-0.204779124650035,-0.6991825375219297,0.6442151612297353,-0.7538004444056602,0.0624004577820887,1.942069151199065,0.9118696684167203,-0.0011497492648631,-0.01005896671595306
CTTT,0.2116771998309459,-0.1632507256834011,-0.4826327327294361,-1.1839993884155935,-0.8385135657852711,0.4893926635813396,1.7697128820079024,-1.745270229173827,-0.6744332179091463,0.9659193928748172,-0.189603410417401,-0.5910066417307045,1.2806586875079131,-2.163447051502322,0.3038903959564685,0.8548472966839545,-2.2732159072724416,1.213144946953589,0.6169155835680638,1.1476835321502716,0.535164326599058,-1.3418289583179297,-0.8042639691810045,-1.2753569903921256,0.9978527635954412,-1.1317702843813782,-0.5324607628200582,1.8320935493293624,1.293224942897907,-0.5254354140453357,0.059014673824016
TTTC,-0.0105115329301016,-0.3973806179800436,-0.0289461492089906,-0.3769593646199636,-0.2061454669555893,-0.3083621331877668,1.7697128820079024,-1.5038337502313286,-0.3107753792208807,1.0833466295100866,-0.2999250836149905,0.1705766131900153,1.5161821242909774,-1.0285240080912683,-1.8667552894468775,0.8168763762746171,-1.8148827207901608,1.1407759311094048,0.9434253189184324,1.528279599566961,-0.307491226985343,-0.5784930336088921,-0.6349056725770268,-0.4973067021199951,0.5694726602996768,-0.6395255691070147,0.1154909880833573,0.8223175685257307,0.838058970130036,0.0724342036867892,-0.00520910465296596
CTTC,0.014176104043348,-0.1047182526092406,-0.4826327327294361,-1.1791955787501436,-0.4107249992010892,-0.1240085885051622,0.9929810435206432,-0.4448055585062788,0.5026968195265609,1.2926542881124845,-0.1358190304716892,-0.4397378805476086,1.1628969691163809,-1.5959855297967953,0.0434129137080669,1.060034005394349,-1.9702085522630413,1.445081710847656,1.258719729088967,1.3503424598059532,0.9831680861324384,-1.1576087281002876,-1.2343905171079963,-1.073481154990191,0.9231102626653812,-1.0174954090827426,-0.4793702325187897,0.7123419666560278,1.2194142446112226,-0.4518514610936937,-0.32439297298291414
TTTG,-0.8745788270008422,0.5391389512065263,-0.5582471633161753,-0.8952370518590884,-0.7129369220460435,0.1591851096518524,2.2169221223490507,-1.2184997296629214,-0.2221981242492083,-0.129651266953428,0.971171368712991,-1.633343037681778,1.0451352507248486,-1.5959855297967953,-1.7799294620307438,1.0373951916487192,-0.9849060527209368,1.5328736317078149,0.9495051498815889,1.0363198742100723,-0.0818389285333538,-1.886673397836763,-0.1441497406126386,-0.4171140654862497,0.8370190103675174,-1.936969722219768,-0.2441158643030716,1.192235502087457,0.5428161769833093,-0.3414755316662203,0.017858561230539978
CTTG,-1.3436439294963871,0.978132499262731,-0.4826327327294361,-1.746578875902759,-0.4390142431203658,0.7940572565005855,1.4401902838617922,-0.1594715379378717,0.5912740744982332,0.0796563916489696,1.1352774218562929,-2.243657531419402,0.6918500955502519,-2.163447051502322,0.1302387411242009,1.280552820768451,-1.1402318841938175,1.837179411446066,1.2647995600521156,0.8583827344490649,1.2088203845844276,-2.465789092328158,-0.7436345851436045,-0.9932885183564488,1.190656612733223,-2.3149395621954807,-0.8389770849052186,1.0822599002177544,0.924171451464496,-0.8657611964467032,0.21362469389323407
TTTA,-0.6770777312132443,0.5684051877436067,0.0466682813777519,-1.1445013978330032,0.0318981709017375,0.121425949897585,1.4872649407398089,-0.9276785163912756,0.757500927848611,0.1054811131592528,0.2466667516644261,-0.8589568671119872,1.2806586875079131,-0.4610624863857414,-1.6931036346146102,0.4989747271693122,-1.004911369235245,2.207329131829436,0.4718670508909408,0.8639610334323155,-0.2055537126899301,-1.023585888886919,0.7541685741071711,0.343876324340481,-0.66486141503583,-1.471533818589115,0.9486648087543136,1.862086895293827,1.0225857158467415,-0.0931296904544208,0.0
CTTA,-0.4795766354256466,-0.0169195429979996,-0.7094760244896572,-1.415116008986697,-0.9720249974530762,-0.7240830783254486,0.7105331022525504,0.1313496753337751,1.570973126596052,0.31478877176165,0.4107728048077277,-1.469271360849611,0.9273735323333164,-1.0285240080912683,0.2170645685403348,0.7421323562890444,-1.160237200708126,2.5116349115676875,0.7871614610614827,0.6860238936713078,1.0851056004278512,-1.6027015833783145,0.1546837295762015,-0.232298128529718,-0.3112238126701243,-1.8495036585648328,0.3538035881521732,1.752111293424124,1.4039409903279283,-0.6174153552348933,2.7694223938557334
GTTT,-0.528951909372546,-0.426646854517124,0.1222827119644912,-1.2165585428147558,-0.7533008432479381,0.9935885026530444,1.0635930288376674,-2.425682124375413,-2.026629070864272,-0.585714476542627,-0.1723697339323099,-0.0504752165670511,1.8694672794655744,-1.0285240080912683,0.1302387411242009,0.9354606387517278,-2.104715842973065,0.4408133188459807,1.4403507001660785,1.928028790262923,-0.402061437405274,-1.0188318184296905,-0.8589965673448038,-0.9164078359485852,0.9819982814896404,-0.7648538965246329,-0.8678593449941351,1.5821489996254934,0.0999519872632243,0.0448402213299156,-0.6569397004812036
ATTT,-0.356138450558398,-0.5144455641283648,0.4247404343114548,-0.926728692999262,-0.7150068667230637,1.1897880582389475,1.9580115095199648,-2.8372215771183087,-1.0205856642704936,-0.5459280699276976,0.0801183314034331,-0.1351288813348192,1.751705561074042,-0.4610624863857414,-0.2170645685403345,0.3280456942856385,-1.8412311864431523,0.5321643716329021,1.452502404198443,1.4922663325559329,-0.1070390109948429,-1.4647076970771375,-0.9353029312848288,-1.0063862970651798,0.9967719685109844,-1.2621886691594406,-0.2470382788150705,2.012053625116149,0.5797215261266462,-0.0195457375027684,0.0
GTTC,0.0388637410167978,-0.426646854517124,-0.2557894409692117,-0.9592878473984242,-0.6473886739404028,0.2217468547349067,0.2868611903504089,-1.1252174537078652,-0.8494990334285638,-0.2589795813049599,-0.1185853539865981,0.1007935446160448,1.751705561074042,-0.4610624863857414,-0.1302387411242006,1.1406473474621224,-1.8017084879636656,0.6727500827400476,2.0821548456869814,2.130687717918604,0.0459423221281064,-0.8346115882120485,-1.289123115271792,-0.7145320005466507,0.9072557805595808,-0.6505790212259974,-0.8147688146928665,0.4623974169521577,0.02614128897654,0.118424174281568,-0.7438763976614786
ATTC,-0.4055137245052973,-0.3973806179800436,0.3491260037247156,-1.1151447832108077,-0.8405835104622914,0.9998816959454212,1.1812796710327065,-1.5367569064507602,0.1565443731652138,-0.2191931746900301,0.1339027113491449,0.0161398798482766,1.6339438426825097,0.1063990353197856,-0.4775420507887361,0.5332324029960333,-1.538223831433753,0.7641011355269689,2.094306549719353,1.6949252602116145,0.3409647485385375,-1.2804874668594954,-1.365429479211821,-0.8045104616632452,0.9220294675809256,-1.1479137938608053,-0.193947748513802,0.8923020424428132,0.5059108278399724,0.0540382154488735,-0.740416217674069
GTTG,-1.5164573883105352,1.0366649723368917,-0.1801750103824724,-1.7364374999423642,-0.8243689438256329,1.3126904213606851,0.7340704306915572,-0.839883433139458,-0.7609217784568915,-1.4719774777684755,1.1525110983413838,-1.7031261062557486,1.2806586875079131,-1.0285240080912683,-0.0434129137080686,1.3611661628362244,-0.9717318198944412,1.0648477833384569,2.08823467665013,1.6387279925617162,0.2715946205800956,-2.142791952439919,-0.7983671833074036,-0.6343393639129052,1.1748021306274226,-1.9480231743387408,-1.1743756670792955,0.8323153505138854,-0.2691015041701974,-0.2954855610714414,-0.05423580096769885
ATTG,-1.269581018576038,0.4806064781323657,-0.0289461492089906,-1.8559989849491243,-0.5680407946546271,1.0372706678589612,1.6284889113738552,-1.251422885882353,0.2451216281368858,-1.4321910711535455,1.4049991636771268,-1.7877797710235166,1.1628969691163809,-0.4610624863857414,-0.3907162233726022,0.7537512183701348,-0.7082471633645291,1.1561988361253783,2.1003863806825023,1.202965534854726,0.5666170469905266,-2.588667831087374,-0.8746735472474324,-0.7243178250294997,1.1895758176487674,-2.4453579469735485,-0.5535546009002377,1.262219976004541,0.2106680346932455,-0.359871519904136,-0.17666040978765746
GTTA,-2.207711223567128,1.3878598107818554,-0.6338615939029145,-1.881085546535364,-0.6660181760335848,0.935469011658728,0.0044132490823146,-0.5490622198678111,0.2187772736409274,-1.2368450976557943,0.4280064812928181,-0.9287399356859576,1.5161821242909774,0.1063990353197856,0.0434129137080669,0.8227456983568174,-0.9917371364087496,1.7393032834600788,1.6105965776594973,1.466369151783959,0.1478798364235166,-1.279704443490075,0.0999511314124022,0.1266510259138254,-0.327078294775925,-1.4825872707080925,0.0184050059780896,1.502166743720255,0.2106680346932455,-0.047139719859642,32.01040343929985
ATTA,-1.98552249080608,0.89033378965149,0.0466682813777519,-1.8543977150606408,-0.3786408567072756,1.2764120129693293,0.8988317297646127,-0.9606016726107072,1.224820680234705,-1.1970586910408645,0.6804945466285619,-1.0133936004537258,1.3984204058994456,0.6738605570253122,-0.3038903959564684,0.2153307538907282,-0.7282524798788368,1.830654336247,1.6227482816918617,1.030606694076969,0.4429022628339477,-1.72558032213753,0.0236447674723772,0.0366725647972278,-0.3123046077545799,-1.9799220433429003,0.6392260721571542,1.9320713692109104,0.6904375735566673,-0.1115256786923261,0.0
TCTT,0.6560546653530411,-0.7193092198879272,0.7271981566584185,-0.1068785100957645,0.6014779478618056,-0.4779081642412468,0.9929810435206446,-0.0936252254990085,0.0114185245581111,1.271389326499501,1.253266567486507,-1.5920616464521176,0.4563266587671875,-0.4610624863857414,1.3458003249500747,1.5607231136310389,-1.0008452479924996,0.3642919824205721,1.0673376853152896,0.6018676905302411,1.2851956438131604,-1.8015615540921948,-1.195628109194136,-1.2878290542588562,1.3043927656980434,-1.4439663502157751,-0.8876793100819008,0.7523330946086471,1.5146570377579496,0.0080482448540946,0.012911724884406159
CCTT,0.0635513779902475,-1.5094976063890952,0.7271981566584185,-0.7014833953525978,-0.0191604644647614,-0.1924933390398633,-0.0191240793566929,-0.554549412571051,0.4082219522741134,2.043903917307353,0.388969052677042,-0.4663618273347287,0.2208032219841228,-1.0285240080912683,2.82183939102435,1.5475470844669157,-0.8443809025716504,0.0208357514879259,1.2195801541058684,0.7397065913132144,1.5521919155164414,-1.917029535962192,-1.1703664088273456,-1.094452049046628,0.9063406106726312,-1.7637666265262808,-0.3391692696483935,0.8723064784665047,1.8345033970002376,-0.2402975963577152,0.42876187218276096
TCTC,0.8041804871937396,-0.426646854517124,-0.1801750103824724,-0.303834706379222,0.5076404558368882,-1.1238859463118227,0.2162492050333853,0.5209403572637135,-0.8252345013603358,0.6958638666960938,2.403172230020269,-0.8144009439068618,0.5740883771587195,0.6738605570253122,0.3038903959564685,0.99283625665732,-0.1619231131892349,0.2581112132721378,1.2295169109941515,1.0632479323416435,0.2384905432323285,-1.586803412466933,-1.0289738635708685,-0.7619207308276599,0.9321716937873356,-1.444769114894806,-0.1259735109703409,0.0024994454970389,1.3670356411845914,0.431155974326062,-0.5283670920833848
CCTC,0.014176104043348,-0.6315105102766863,-0.4826327327294361,-0.9352687990711732,0.3844787475541843,-0.8999223026713078,-0.7958559178439515,0.0600161701916722,-0.428431073644334,1.4683784575039456,1.538874715210804,0.3112988752105271,0.3385649403756551,0.1063990353197856,1.7799294620307438,0.9796602274931966,-0.0054587677683856,-0.0853450176605086,1.381759379784738,1.201086833124617,0.5054868149356067,-1.7022713943369383,-1.003712163204082,-0.5685437256154315,0.5341195387619235,-1.7645693912053115,0.4225365294631597,0.1224728293548955,1.686882000426869,0.1828101331142626,0.0
TCTG,-0.0845744438504508,-0.1632507256834011,-0.4070183021426935,-0.8845619192691991,0.5228200501350366,-1.0180122238635805,0.6634584453745344,1.3110961065300717,0.1173352466512232,0.995686434548413,2.4976165206415484,-2.219862362678725,0.2208032219841228,0.6738605570253122,0.4775420507887363,1.214792457031144,0.9429233508895892,0.2355700444026375,0.209993982678032,-0.5725521156166566,2.5398591283676617,-1.1359777075198867,-0.2516536855060266,-0.9993900716115116,1.0158253139204445,-1.1031177604528652,-0.2535153609786774,-0.0374916824555802,0.1983662516454595,-1.7579666259854168,-0.5142045199769687
CCTG,-0.1586373547708,-0.5144455641283648,-0.9363193162498782,-1.20748468011335,-0.6518735540739466,-1.384498186184422,-0.3486466775028032,0.8501719194580305,0.514138674367225,1.7682010253562648,1.633319005832084,-1.0941625435613362,-0.0147202147989415,0.1063990353197856,1.953581116863012,1.2016164278670207,1.0993876963104383,-0.1078861865300085,0.3622364514686184,-0.4347132148336833,2.80685540007094,-1.2514456893898922,-0.2263919851392399,-0.8060130663992832,0.6177731588950321,-1.422918036763366,0.2949946794548299,0.0824817014022763,0.5182126108877478,-2.0063124671972163,0.0250074391706862
TCTA,0.0635513779902475,-0.1925169622204814,-0.3314038715559543,-0.5696455078674653,0.1447101557993405,-0.8088560938521913,-0.0661987362347089,0.8446847267547908,0.2324875280199873,0.3699584117914661,2.710163986195471,-1.6199966342069494,0.6918500955502519,1.8087836004363664,0.651193705621004,1.379133475332756,0.3232464734951658,0.4835229019671387,0.6702387781672007,0.6671405326917464,0.2496071780154006,-1.7057810169391805,-0.3592749145383446,-0.4497479285515494,0.3491959833886976,-1.841352509516204,0.5605878316588627,0.2624417771890627,0.5920233091744321,-0.2954855610714414,-1.352021280662004
CCTA,-0.356138450558398,0.041612930076161,-1.08754817742336,-1.1001995975849626,-0.2806634753283178,-0.678179786075163,-1.0783038591120462,0.3837605396827485,0.6292909557359893,1.1424730025993175,1.8458664713860065,-0.4942968150895605,0.4563266587671875,1.2413220787308397,2.1272327716952795,1.3659574461686328,0.4797108189160149,0.1400666710344923,0.8224812469577871,0.8049794334747197,0.5166034497186789,-1.821248998809186,-0.3340132141715543,-0.256370923339321,-0.0488561716367145,-2.161152785826705,1.1090978720923768,0.3824151610469204,0.9118696684167203,-0.5438314022832513,-2.0558758251040414
GCTT,-0.4055137245052973,-1.3339001871666136,1.0296558790053822,-1.0206698597902877,-0.0460697452660246,0.420907913046636,0.6163837884965184,-0.1484971525313945,-0.7262520937419624,0.4757144345656036,0.1272063245935696,-1.2034382450196526,-0.1324819331904738,-2.730908573207849,2.300884426527547,0.0393708735080255,-1.522284636162191,-0.1446638831065615,0.7994643650785354,-0.6405033120395448,0.7516628531955724,-0.7234781999942237,-1.3928479045776838,-2.0397615826960083,1.4526244965989297,-0.3072162783474383,-1.573214997617966,0.6323597107507893,0.3090822990754808,0.6978978037757773,0.0061493611336624005
ACTT,-0.3067631766114984,-2.036289864056541,1.5589568931125668,-0.3582778825876572,-0.1271425784493171,0.8569891894243644,0.2868611903504089,-1.2459356931791143,0.4585669441428954,-0.0401530783350072,-1.1393749905762618,-1.3893741989620645,-0.6035288067566028,-2.163447051502322,2.040406944279145,-0.1223349389607618,-1.8335868785067904,0.2415019309472427,1.0457558769748918,0.7534259311269396,1.9082620061339752,-1.700761277838757,-1.4668281330957498,-2.0788704274123107,1.4121982470528922,-1.316335587839627,-0.7523443547082495,0.8923020424428132,0.0138395059287539,0.155216150757389,3.009688798518229
GCTC,-0.0598868068770011,-1.275367714092453,0.273511573137973,-0.960355360657413,-0.2482343420550008,-1.0761317148578955,-0.1603480499907401,0.4660684302313285,-1.5629051196604098,-0.0998110252378037,1.2771119871273315,-0.4257775424743967,-0.0147202147989415,-1.5959855297967953,1.2589744975339408,-0.5285159834656934,-0.6833625013589258,-0.2508446522549964,0.9616435907573976,-0.1791230702281422,-0.2950422473852596,-0.508720058368962,-1.22619365895442,-1.5138532592648115,1.080403424688222,-0.308019043026469,-0.811509198506406,-0.1174739383608186,0.1614609025021227,1.1210055332477449,-0.10521841797287901
ACTC,-0.1339497177973503,-1.4802313698520153,1.0296558790053822,-1.0057246741644428,0.0170635673830926,0.2173046006461691,-0.4898706481368503,-0.6313701104163912,-0.3780860817755516,-0.6156785381384146,0.0105306719574998,-0.6117134964168085,-0.4857670883650706,-1.0285240080912683,0.9984970152855396,-0.6902217959344809,-0.9946647437035264,0.1353211617988081,1.207935102653769,1.214806172938342,0.8615569055531433,-1.486003136213503,-1.3001738874724862,-1.5529621039811143,1.0399771751421858,-1.3171383525186575,0.0093614444033104,0.1424683933312051,-0.1337818906446041,0.5783238802293564,-1.1314058240545353
GCTG,-0.7017653681866941,-0.2217831987575618,-0.7094760244896572,-1.2405775911420072,-0.0967833898530203,-0.7651739286462719,0.2868611903504089,1.256224179497687,-0.6203353716488499,0.2000115426145158,1.3715562777486117,-1.83123896124626,-0.3680053699735383,-1.5959855297967953,1.4326261523662087,-0.306559783091869,0.4214839627198984,-0.2733858211244961,-0.0578793375587222,-1.8149231181864427,2.006326337750076,-0.0578943534219237,-0.4488734808895781,-1.7513226000486637,1.1640570448213308,0.0336323114154714,-0.9390510485147358,-0.1574650663134378,-1.0072084870369986,-1.0681170670637343,0.0
